alpha: 0.01
n: 2
pca: False
0.06364238,-0.34051237,0.03276835,-0.27165309,-0.31873494,0.10744158,-0.22327170,-0.45266426,-0.29722732,-0.22759293,-0.03741688,0.00262959,0.14033440,-0.25074592,-0.15370910,-0.12039860,0.17609586,-0.16481540,0.21023251,-0.40780550,-0.17179948,0.20624830,0.07657278,-0.26512894,-0.16253412,0.11521741,0.52745020,0.20447868,-0.08952245,-0.33492807,0.47363847,0.24420615,-0.15469381,-0.27777168,0.04839765,-0.03721805,0.09532360,0.10409128,0.21000069,-0.35195202
0.31459132,0.36638495,-0.05850065,-0.02503721,-0.05416331,-0.43899313,-0.16424753,0.26058072,-0.27664691,-0.12698130,0.23052694,0.08775949,-0.33929354,-0.03690865,-0.39956784,0.23975806,-0.13940044,-0.34884596,-0.43058208,-0.04679846,-0.30606708,0.16735739,0.45353228,0.29282206,0.53321058,-0.04596175,0.43671942,-0.19006743,-0.36285383,-0.12480747,-0.22460063,0.09088514,0.24850009,-0.15627307,0.16576888,-0.27463505,0.36790147,-0.32359985,0.24588150,-0.16298698
-0.25871292,0.11611370,0.16529852,-0.09103575,-0.09072389,-0.44240016,-0.04722141,-0.23101220,-0.19129620,-0.17876551,-0.16601495,-0.25511500,0.00085485,-0.23476851,0.33731014,-0.32595932,0.00387555,-0.10583229,0.13098104,0.01531480,0.37748703,0.31332743,-0.14326271,-0.15803513,0.15972558,-0.25064647,-0.09285704,0.22677661,0.16477080,-0.22626276,-0.03423679,0.04169657,0.21525130,0.32488930,-0.06016168,0.22658215,0.15886569,-0.05679138,0.08319283,-0.19661303
-0.37075403,0.15596686,-0.26777446,-0.31708530,-0.18330169,0.18102653,-0.15545338,-0.24591118,0.01442397,0.17596699,0.03166802,-0.41209200,-0.41574708,-0.12744933,0.27944788,0.16976668,-0.00489570,-0.21244392,0.16212602,0.29720065,0.08722950,0.29437822,0.15749155,0.04434074,-0.03619938,-0.31232229,-0.27307954,-0.30810305,0.12264026,-0.26830083,0.07299314,-0.08026254,-0.10649605,0.06023156,-0.22433977,-0.19759469,0.23259372,-0.30246142,0.12734491,-0.22661933
-0.20346063,0.21737795,-0.51996082,0.16868186,0.07386743,0.24921983,-0.32431212,-0.45485801,0.13480949,-0.05286551,-0.11394899,-0.17166950,0.02242145,0.34014791,0.19703527,-0.36324954,0.22348005,0.23569483,0.06710614,0.14545856,-0.06494532,-0.04948635,-0.07197373,0.00099548,0.10401253,-0.36293811,-0.08891132,0.17699131,-0.52592236,0.06830718,0.19662540,0.21711434,-0.32214877,-0.21880980,-0.18077728,0.09120534,0.05985579,-0.00956257,-0.09885006,-0.09396991
0.00893308,-0.27748933,-0.12310237,-0.23422927,0.27197719,0.15587169,-0.36053133,0.04050194,-0.27971533,0.32529539,-0.27100000,-0.09469049,0.24961054,-0.27216750,0.03771467,-0.11991508,0.00643809,-0.29487175,-0.44816452,-0.24290924,-0.34772712,-0.07414451,0.04145813,0.28791946,-0.04548430,0.02754474,0.04438927,0.02498385,-0.17696926,-0.06491612,0.02140642,-0.25317714,0.09380266,-0.30735850,0.29311493,-0.04454280,-0.16191067,-0.38073412,0.27335718,-0.29445320
0.35988438,0.26509145,-0.09433570,-0.02715771,-0.00333590,-0.09968130,0.32854658,-0.06370954,0.35865536,0.33561340,0.13904765,-0.14159168,-0.48694879,0.07573532,-0.12423591,-0.12657999,0.50566000,-0.58812392,0.30040494,-0.23678999,0.15986003,-0.31893772,-0.30863059,-0.00384505,-0.36624357,0.22810775,0.01883636,0.30112970,0.31085086,-0.16710670,0.09849872,-0.21964626,0.17564131,-0.05092988,0.17718054,0.42863980,0.04362450,0.23607212,0.04607189,-0.16677326
0.50140935,-0.32651499,0.08963132,-0.33039045,0.11066672,-0.37389290,0.28079644,0.30651662,0.11637550,0.18809929,-0.23854427,0.48821074,0.00947623,0.21130595,0.41414496,-0.31831449,-0.02074489,-0.07146361,0.31079274,-0.33698037,0.33365092,0.21707191,-0.25595275,-0.00908445,-0.11386912,0.50787270,-0.00766551,-0.30608925,-0.16045544,-0.00485183,-0.09791090,0.12812926,0.32853720,-0.09234585,-0.11225396,-0.13537845,-0.38129142,-0.08524720,-0.05599518,-0.32936323

0.01110315
0.12358406
-0.11249683
-0.00799555
-0.05365154
-0.10264672
-0.05737042
0.12894624
0.00954809
0.09925427
0.02935735
0.01922453
0.00275039
0.13819876
-0.00878789
0.12529840
-0.04796852
0.05376396
-0.08238527
-0.00042772
0.00346919
-0.05598121
-0.02921428
-0.01620988
-0.02258462
-0.08825369
0.13158049
0.06140087
0.00487621
0.09824252
0.10888807
0.00917393
0.05013467
0.06661278
0.14051716
-0.08593512
-0.06629104
0.14503035
0.00380351
-0.02122606

0.01438959,0.17128080,0.11622152,0.30514309,-0.19940031,-0.30847359,0.01823742,0.19402152,0.10290172,-0.14991561,0.11336018,0.28153685,-0.06522988,0.23476815,-0.04327951,-0.16987137,-0.15841134,0.13676377,-0.18062735,0.21115287,0.08957633,0.05991191,0.21786763,0.25235137,0.13871969,0.07218975,0.11647654,0.15931988,-0.07517725,-0.02964749,0.13710773,-0.00155129,-0.05309869,0.01352386,-0.18987165,0.06044797,-0.35733816,0.10572849,0.04962681,-0.10964915
-0.16923502,0.10843550,0.00816270,-0.11968587,-0.01519507,0.27947000,0.02526914,-0.02793433,-0.18098490,-0.20349379,0.15574092,-0.14346109,0.13247734,0.30795968,0.07192530,0.24249806,-0.07751703,0.13383387,-0.08178151,-0.18922693,0.23676509,-0.01738334,-0.04996442,-0.00919486,0.23422317,-0.01673564,-0.08830750,0.28388593,0.01866064,0.22792783,0.18058014,0.25207329,-0.17878239,0.27020600,0.04188115,-0.02152499,-0.06108227,-0.15521653,0.09582856,0.14153068
0.24952053,-0.20282003,0.15998371,0.07104456,0.05501140,0.34555191,-0.12967207,-0.30923766,-0.07364868,-0.11365753,0.24418280,0.05977965,-0.03537071,0.19335178,-0.18160710,-0.05979577,0.27856168,-0.09505874,0.25236833,-0.53132683,-0.10242816,-0.29354805,0.15003245,-0.05190531,-0.27431574,-0.26342085,-0.29399052,0.22677793,0.01152440,-0.02085065,0.20273891,-0.11115500,0.03486060,0.29388863,0.11287989,0.05722953,0.31754348,0.20189442,-0.06245562,0.13572586
-0.16815257,0.05156272,-0.12217942,0.24241801,0.05143628,0.21153690,-0.13181344,0.12445514,-0.01426134,0.08034261,-0.20721029,0.01153995,-0.29446647,-0.04260287,0.22559839,-0.08915169,0.21465470,-0.05120789,0.21938035,-0.26892418,-0.06025981,0.16737407,-0.07076898,0.20843968,0.01834289,-0.32831433,-0.04394069,-0.03855116,-0.08054530,-0.21645378,-0.21690691,-0.07286316,0.11087845,0.27164596,0.01863105,-0.20619050,-0.05251393,-0.19563851,0.13260932,0.08054848
0.23361216,-0.17699958,-0.27698806,-0.24490680,-0.09209511,0.33900329,-0.53518647,0.01279843,-0.00595008,-0.27772486,-0.00218679,-0.10954145,-0.08835106,0.05704441,0.10473941,-0.14154203,-0.51341808,0.10668010,-0.22699636,-0.28363088,-0.10850564,-0.40102366,-0.26068875,0.37637472,-0.28238577,0.04735368,0.32627028,-0.20038998,0.09837459,0.40093243,0.27774441,0.00068540,0.15294971,-0.03247626,-0.11128346,-0.00266143,0.16524400,-0.04037059,-0.09256013,-0.25322732
0.15344018,-0.19862559,-0.10589976,0.21112005,0.14650393,-0.11023083,-0.05916716,0.06881618,-0.19237572,-0.18243125,-0.12050554,-0.28642815,0.34408039,0.09946065,-0.29294705,-0.05833669,-0.21795394,-0.20721449,-0.02881971,0.12439065,-0.14696769,-0.03442634,-0.07362239,0.11772399,-0.25283471,0.09736367,0.17742048,0.20745695,-0.17375715,-0.06590008,0.09008717,-0.17000043,-0.18057975,0.17719840,0.12906103,0.31745821,0.19973353,0.19534349,0.25493819,-0.39496404
-0.08411999,-0.40253457,0.01407584,0.07419313,-0.07183144,0.06977849,0.10218169,-0.14928019,-0.21201803,0.18252240,0.19963086,0.07916212,-0.07743700,0.14346069,-0.03910518,0.34103557,-0.01373551,-0.15273528,-0.11020547,-0.10761308,0.04753881,0.22160842,0.24670091,-0.08369569,-0.06763631,0.38294724,0.15039460,-0.06368849,0.01395953,0.22984393,0.02753970,-0.20473199,0.24980024,-0.31902951,0.16390742,-0.04107927,-0.08164596,0.25850084,-0.20618840,-0.02114622
-0.32521278,0.13267344,0.19382672,-0.13238251,0.15955926,0.20376717,-0.13715309,0.05092566,0.26320601,-0.00788843,-0.24034125,-0.17659907,-0.26281098,-0.00247512,0.18747267,0.04122186,0.00420165,0.22524171,-0.02930522,0.04044008,-0.30672094,0.05049920,0.06485562,-0.10713616,0.05817516,-0.04614134,0.21444310,-0.01067471,0.16248487,-0.13144749,0.14152402,-0.11305572,0.00492065,-0.24743897,0.11433198,-0.13223092,-0.32484266,-0.06567750,-0.07932252,0.05860225
-0.06684869,-0.14903389,-0.02072928,0.13212530,0.04590061,0.35275698,-0.18414997,0.25286952,-0.20792839,0.10626306,0.18650074,-0.10258660,-0.28899130,-0.01037904,0.27505368,0.18190484,-0.15612926,-0.24939750,0.12795472,0.15257666,-0.30227250,-0.13045871,-0.23752944,0.24951904,0.04814817,0.32478651,-0.03807239,-0.13915256,-0.07024027,0.18421629,-0.04357903,0.01602192,0.28689298,0.08925191,-0.12584668,0.24975254,0.17001364,0.03122285,-0.07141047,-0.18013212
0.10023393,0.04800095,0.33777821,-0.04728536,-0.16490872,0.28485101,0.06109085,0.25385514,0.27413553,0.09988321,0.04669797,0.00483512,0.03143601,0.10256314,-0.06319289,-0.32579491,-0.09264443,0.02677844,0.08670705,-0.15051079,-0.02506951,0.08963205,0.00146893,-0.07749673,0.07593016,0.24048465,0.00722856,0.12271710,0.24039100,-0.15168899,-0.30029967,0.11694847,0.01417386,-0.04001931,-0.28801465,-0.13532841,-0.29087079,0.00482757,0.17010072,-0.33892336
0.00520355,-0.29066622,-0.02257639,0.13347138,0.22078757,0.22816457,0.27186689,0.06941459,0.29796317,0.03768980,0.24223171,0.12269001,0.16123465,0.07554954,0.01357997,-0.18535738,0.04165840,-0.13648395,0.40501204,0.23756301,0.10032167,0.20621721,-0.23914479,0.19942786,0.30794320,0.22976568,0.25197086,-0.10513902,-0.18773071,-0.12561326,0.15638635,0.06215502,-0.04752680,0.17012209,0.16491872,-0.08282931,-0.39648408,-0.07977426,0.04520952,-0.17204496
0.08163644,-0.00370618,0.21800202,0.17277004,-0.32563740,0.08731654,0.06422111,-0.06749842,0.29444304,0.14584291,-0.21143571,-0.25325808,-0.03457018,-0.13382283,-0.22378956,0.30154514,-0.31155550,-0.03821180,0.36753362,-0.06185573,-0.27830574,-0.10149470,0.01444126,-0.10059676,0.27678111,-0.18765797,-0.12056965,-0.07459842,0.24810323,0.05098557,-0.14859295,-0.23057309,-0.11284831,0.06323101,0.20437536,0.16976433,-0.21828155,0.07999230,0.07612317,0.18266265
0.29747924,-0.03962487,-0.16730857,-0.02746103,0.16422436,-0.01065880,0.12212761,0.12980606,0.00543665,0.12412435,-0.31929356,-0.06841477,0.25425270,0.15797371,-0.02417583,-0.24345545,0.05679332,-0.18781225,-0.04654086,-0.26836044,0.12922587,-0.13349505,0.21312024,-0.04402743,-0.19888110,0.15992278,0.17002991,-0.26052576,0.18850385,-0.01499293,0.12851213,-0.11410838,-0.25942340,-0.00452526,-0.10236713,0.11860967,-0.17243941,-0.09146551,-0.24879350,0.14906651
-0.06070929,0.25538966,0.12933168,0.00976431,-0.27562478,0.10594787,-0.05987379,0.19889291,0.08766863,0.10656576,-0.14940880,-0.03334969,-0.21968916,-0.29492825,0.11742482,-0.09460869,-0.08870278,0.16781954,-0.01983227,0.12723695,0.18379222,-0.16490123,0.14880340,-0.00401710,0.00726503,0.19893131,0.03700726,0.04124393,-0.20385979,0.17484717,-0.18543690,-0.17225066,-0.16747274,0.15872166,-0.33452940,0.09944762,0.25424305,-0.28886381,0.31977525,0.23414072
-0.08055869,0.00940968,0.08544382,0.24643680,0.02307065,0.03548281,0.13080919,-0.00153962,0.40103978,0.05792851,0.30547500,-0.08733391,-0.05269109,-0.05748448,0.08984581,0.13200325,-0.20933558,-0.32446530,0.13050687,-0.08812258,0.19096528,-0.15635882,-0.07784025,0.30666378,0.13001338,-0.05816346,-0.02179310,-0.01947094,-0.25695890,0.13617244,0.18487674,0.32930037,0.05455641,-0.02785061,0.19024523,-0.12802632,-0.03841431,0.23648825,-0.11670975,-0.06565709
-0.18349850,-0.10918666,-0.19246419,0.05995249,0.21818458,-0.00638509,-0.20407331,-0.27943602,-0.19793089,0.04164556,-0.05730320,0.08125252,-0.18468285,0.19148360,-0.18909436,-0.08839916,0.24062730,0.15648507,0.32210121,-0.01331575,-0.14954388,0.13856669,-0.16613328,0.05799846,-0.10768688,-0.10282218,0.06076791,-0.04167859,0.22187567,-0.35498422,0.06075038,-0.21199121,-0.34577835,-0.05741685,0.28425607,0.16915700,-0.35650134,0.01809505,-0.04995574,-0.09499734
0.20191258,0.01693611,-0.10489978,-0.04906705,-0.09338422,0.09332735,0.08402244,-0.41379088,0.10464139,0.10258091,-0.35758901,-0.08573090,0.18248601,-0.29069707,-0.01536258,-0.38513881,0.13886254,0.07827429,0.22306833,0.02213229,-0.19293392,0.12677728,0.28306425,-0.05957392,-0.27647442,-0.30848238,0.09357718,-0.03907114,0.11351003,-0.05974567,-0.18003140,-0.05290594,0.04968084,0.17834078,0.03949417,0.07992351,0.08922678,-0.03930704,-0.15576194,-0.21033487
-0.22644521,0.14851557,-0.02315500,-0.05533071,-0.06701041,-0.14106075,-0.02521750,-0.11798675,-0.33403257,-0.07060466,0.12727794,0.24945997,0.00473321,-0.16198471,-0.25220570,-0.19280042,-0.30520308,0.16132119,0.00914689,0.08852310,-0.22006421,-0.21726573,0.09693941,0.11087529,0.17639126,-0.19203302,0.18767110,-0.07061248,0.10747540,0.22815910,-0.15251684,0.18429044,-0.07843927,-0.20991829,-0.04560354,0.13043514,0.00900308,-0.14751185,-0.06156960,0.08047827
-0.30935901,-0.28016818,-0.00493111,0.09982450,0.03727571,-0.17424086,-0.14736028,-0.37036595,0.14465366,-0.28336760,0.26705894,0.32259417,0.13824256,-0.21051913,-0.10298052,0.29496092,0.21716341,-0.42868751,0.01743951,0.13842709,0.10236647,0.29516414,0.14160666,0.04034273,-0.17949338,0.15051948,-0.35594690,-0.00963721,0.04802217,-0.18893756,0.14805992,-0.60934079,-0.08358983,0.21582229,0.08835761,0.10983615,-0.24057768,0.20494625,-0.21239486,-0.17581990
0.33207691,-0.03612787,0.26648083,-0.29519936,-0.05591386,-0.32665354,-0.10170307,0.18918684,-0.04604334,0.29188997,0.07120855,-0.02326474,0.21191654,0.16008238,-0.11055425,-0.17529884,-0.03232543,0.14187509,-0.16850185,-0.13747171,-0.19086163,0.26080406,0.17123251,0.21220295,0.26873520,-0.05703674,-0.22971968,-0.10821827,0.12944879,0.02007239,0.22466137,-0.22257601,-0.26366612,-0.10333785,-0.54115552,0.00061398,-0.12499459,-0.06095522,0.09036297,0.10290178
-0.28912035,-0.00377335,-0.23741536,0.01364723,-0.10128692,-0.04868436,-0.07970570,0.02751825,-0.07114821,0.07917722,0.05918157,0.30919871,0.11875503,0.12124185,-0.10153334,0.03345459,-0.06672233,0.18486978,0.28322569,-0.52668995,0.15344636,0.34800482,-0.17459598,0.26075974,0.14684328,-0.04542848,0.07555084,-0.38219625,0.23340870,0.09840388,-0.00819021,-0.01237056,0.03014318,-0.25348753,-0.28923416,-0.20522518,0.10304968,-0.25841337,-0.04873758,0.28013632
-0.22968726,-0.07512162,0.00616406,-0.04774211,-0.14477986,-0.17863688,-0.41398481,0.01414408,0.05323873,-0.13414522,0.06043610,-0.09725922,0.30256397,0.08044703,-0.25143576,0.25583819,-0.25998741,0.00937696,-0.16055833,-0.14531535,-0.07099004,-0.22704926,-0.05480130,-0.33445778,-0.01531440,0.14470547,0.23190376,-0.01218948,-0.13521524,0.15667839,0.29243216,0.00054273,-0.30190861,0.09508444,0.06484927,-0.02754821,-0.23700500,-0.11442718,-0.14172545,-0.22267359
-0.31471524,0.27007872,0.24236928,-0.17810498,0.12627581,0.05647246,0.23331913,0.22837152,-0.28460452,-0.31716269,0.16464391,-0.25227287,0.20094950,-0.19277915,-0.14017807,-0.19809522,0.10592625,-0.25230023,0.26309910,-0.08641141,-0.40687940,-0.12980683,0.00450545,0.22398047,0.10389931,0.13404818,0.29433605,0.20017782,0.30339730,-0.10441726,0.17162068,-0.05534294,-0.01839005,0.24348226,0.03911416,-0.10392475,0.13285004,-0.10439377,0.14897531,-0.00445602
0.17912443,0.06735790,-0.21369927,-0.22498745,0.24329321,-0.20314865,-0.20606203,0.23957692,0.14171878,-0.05306324,0.28244844,0.08694885,0.37041163,0.28241554,0.01145212,0.11293448,-0.15494801,-0.28610930,0.08535716,-0.29583907,-0.18764819,0.01890575,0.08369665,-0.19001657,0.01439121,-0.07203362,0.18547440,-0.26504210,-0.07112738,-0.22024798,0.19287172,0.08552186,0.33898336,-0.16803375,-0.08801872,-0.22578682,0.05301536,-0.08033931,0.24799871,-0.10321752
-0.31569237,0.24899459,-0.20961072,-0.13157994,-0.17441663,0.17419593,-0.17104644,-0.20910239,-0.19973682,0.15649270,-0.10093976,0.16877528,-0.24596943,-0.01377891,0.08003782,-0.05114208,-0.63343060,0.06477433,-0.05562194,0.19172332,-0.21338736,0.04535730,0.01382845,-0.10760945,-0.09819484,0.09768477,0.19031569,0.29501694,0.14894392,0.14112301,0.26571250,-0.08043322,-0.41755909,0.04804335,-0.17687364,-0.18705714,-0.03599620,-0.21934517,0.30992454,-0.07456447
-0.23689663,-0.29362068,0.34420788,-0.21002072,-0.43069556,-0.21775250,0.18531108,0.13952029,0.20595506,0.13677827,0.24769901,0.15940002,-0.22605318,0.01252686,-0.18346035,-0.27777180,0.20330326,0.01507074,0.11379352,-0.15809806,-0.28504467,0.35261631,-0.17576487,0.13563530,-0.11898622,0.04535315,0.29058981,0.28408241,0.00740867,0.25158852,0.22311519,0.21918668,0.08653389,-0.03831947,-0.02068030,-0.26937613,0.18597627,0.16337191,0.23312654,0.18001409
-0.25259939,0.13712262,-0.16730890,0.21867003,-0.07919049,0.01372019,0.09095389,0.25147429,0.01267317,0.19390841,-0.19085357,-0.09214516,0.13887823,0.21818213,-0.28752464,-0.07959043,-0.18554461,-0.36105344,0.06959356,-0.03394743,-0.11240280,0.05448119,0.13912441,0.04369450,0.01432583,0.15073389,0.12112752,-0.35413700,0.26904339,0.10136854,0.23253399,0.09827679,-0.33498439,-0.12478562,0.06192268,0.14197177,-0.13323763,-0.15156610,-0.00716999,-0.08604360
-0.04036603,-0.03241248,-0.05951295,0.06027417,-0.16925013,-0.09527314,0.15099701,-0.25375611,0.09866120,0.29830110,0.33738843,0.05233938,0.04609263,-0.08703577,0.12018159,-0.01404804,0.22033183,-0.10225034,0.01420086,-0.06807217,-0.09358984,-0.05230972,-0.31526631,-0.23590547,0.31715518,-0.18900171,0.08722852,0.14960165,-0.12081482,0.09935968,-0.17482547,0.14054191,0.02654496,0.27237472,0.08693737,-0.01001204,0.05084150,0.18099704,-0.08171203,-0.10961472
0.00179664,-0.14075863,-0.21820799,0.01821885,-0.32468235,0.26190704,-0.32244232,0.13962600,-0.31181702,0.11656062,-0.23365861,0.11730930,-0.30715007,0.17184170,-0.19210668,-0.22224757,0.10172670,-0.28213671,0.20782447,-0.53867936,0.15979813,-0.07373249,-0.29816714,0.17847154,-0.17602839,0.19075562,-0.21026248,0.03572987,0.19341163,-0.01477731,-0.38781193,-0.03959627,-0.03212653,0.19282351,-0.33094522,-0.01412018,0.10243934,0.37277412,-0.09455224,0.02207937
-0.25002620,0.04736460,-0.09592328,0.20361927,-0.15476720,0.11479934,-0.18622206,0.14545237,0.09004971,0.09201620,0.12476558,-0.12567399,-0.06832010,-0.08311722,-0.12791538,0.12156074,0.12990952,0.19822536,-0.03124874,-0.14882432,-0.00403119,-0.15139474,0.21551083,-0.20653147,0.16798051,0.17784280,0.05053696,0.08119998,-0.20128146,0.19837341,-0.23611662,-0.19213311,0.21945150,-0.15313117,0.11135501,-0.06656771,0.02499015,0.20256762,0.16877566,-0.06216187
0.08203324,0.06770936,-0.27444756,0.20694822,0.14407109,-0.33988294,0.23243286,-0.52529585,-0.13498317,-0.19359323,-0.09207367,-0.05591302,-0.01332192,-0.01298510,-0.14399846,-0.28180459,0.19371736,-0.27151212,-0.12390168,0.15546145,0.06012937,0.12508938,-0.16899934,0.04670878,0.07911964,-0.30880031,0.21066830,-0.07757070,-0.27833301,-0.38430628,0.12504639,0.15610948,-0.23546177,0.25435382,-0.25623217,-0.03859774,-0.10764500,0.31436521,0.16472155,0.00670152
0.19187374,-0.09118854,-0.09295574,0.17970808,-0.00040618,0.32777187,0.16825652,-0.21349037,-0.29652441,-0.06516108,0.11247806,-0.07866421,0.20556630,0.22079481,-0.25935185,-0.10108984,0.02027546,-0.08905795,-0.10563248,-0.07981796,0.17979796,-0.36911103,0.19998202,0.13441674,0.13074914,0.06019403,0.01619021,-0.10788623,0.17531662,-0.28467363,-0.23167935,-0.33539724,0.00548694,0.25331992,0.00397631,-0.16565898,0.07821308,0.21437225,-0.11652336,-0.23495468
-0.19199552,-0.11401798,0.15310782,0.38705516,-0.25045782,0.10868090,-0.11482650,0.19618866,0.16248372,-0.03832256,0.05988332,-0.16553950,-0.00507222,0.06512208,0.00349243,0.26505741,-0.12302253,-0.10408353,0.07752686,-0.08884221,0.08586490,-0.24506469,-0.38017523,-0.14103936,0.16002476,-0.36212432,-0.13370349,0.12150693,-0.33089688,-0.11528536,0.05663612,0.13396025,-0.12923397,0.25001276,-0.17010517,0.12848391,0.33715895,-0.25948974,0.17270914,0.08412410
-0.21993424,0.21445988,0.15425810,-0.08538307,-0.13017859,-0.24472043,0.02881827,-0.20620167,-0.27955315,0.15939119,0.17861681,-0.18840379,0.08986912,0.23587382,0.14511710,-0.04606442,-0.07597530,0.17664416,0.02231829,-0.13701524,0.37451267,-0.17040430,-0.02301165,0.12464909,-0.03528766,0.19115579,-0.09899063,0.02683701,0.07564615,-0.28445572,-0.15792933,0.16347091,-0.09121301,-0.20838819,-0.29954922,-0.08801975,0.30491650,-0.17027055,-0.02887089,0.26642203
0.10422716,-0.29778942,-0.17535283,0.08293334,0.07313769,-0.17228779,0.16239201,0.15382028,0.14183904,0.27072328,-0.15745136,0.20208608,0.11824845,0.20600584,0.13698338,-0.20484836,-0.08912273,0.22311823,-0.03709358,0.15903126,-0.12897228,-0.07947271,0.09642667,-0.06957860,-0.10269271,-0.15427893,0.31258470,-0.09152073,0.08412445,-0.18591829,0.15550570,0.08500526,0.00533462,0.28448349,-0.16300422,0.11841588,-0.03668420,0.10024976,0.13484982,0.23951913
-0.03697287,-0.16862039,-0.24954888,0.13901857,-0.23304109,0.24923807,-0.30600438,-0.11108559,-0.29059586,0.18184242,0.05612871,-0.10894774,0.20693979,0.00090526,-0.09350330,0.21588825,-0.15582569,-0.07177826,0.19499831,-0.22267203,0.18487756,-0.07749175,-0.08834532,-0.17948812,-0.04590474,-0.11680307,-0.02977179,0.18301284,0.19911203,0.02918637,-0.21716774,-0.21712750,0.22226186,-0.05996313,0.22290829,-0.26604322,0.05621664,-0.22489001,0.00741983,-0.31627509
-0.18549219,-0.22938383,0.20258723,-0.17989381,-0.01706993,-0.21517470,-0.32189748,-0.04170140,0.18227960,0.16196029,0.10814548,-0.04274845,-0.03953445,0.01498662,-0.09211934,0.07782548,0.11121232,-0.09507681,-0.10751000,-0.01443491,-0.00355853,0.05418695,-0.24683931,-0.32894069,0.01270073,0.21658295,0.10675971,0.06464979,-0.08559281,-0.30949163,0.00291198,-0.11959713,-0.04624480,-0.15382650,0.02144592,0.01611943,0.00751986,-0.16592951,0.05025426,0.04112997
0.03484003,-0.32110488,0.12945648,0.10959475,0.17454685,0.27974567,0.21078581,0.16596669,0.00522229,0.05786610,-0.17275050,0.21236455,-0.14050218,-0.00944898,-0.01004894,-0.02848591,-0.09281021,-0.02727544,-0.26102725,0.22665738,-0.28675744,-0.34344378,0.25424987,0.15913351,0.07384391,-0.06729618,-0.05420683,0.07710613,0.18519433,0.24727815,-0.08421322,0.18080571,0.10904816,0.15000173,0.21902606,0.01898224,-0.15781184,0.24253961,-0.11212105,0.21129450
-0.11853399,-0.21672277,0.11427741,0.04804418,-0.12082373,-0.06788678,0.23868963,0.18290918,0.24949214,0.20137355,-0.02239045,0.02612695,0.18004608,-0.31361982,-0.06179536,0.30555055,-0.08804075,-0.08543865,-0.20182480,0.31629050,-0.14297490,-0.01047913,-0.22783877,0.22497837,0.06581013,-0.02576249,0.22985879,-0.17040645,-0.09683037,-0.20859411,0.22854102,-0.24097872,-0.13180907,0.12880515,-0.20021711,0.08280835,0.24340889,0.16987105,-0.08724128,-0.21176602
0.07997376,-0.25820845,-0.02681026,-0.08925427,0.25592780,-0.24020845,-0.12742816,-0.02845655,0.05847961,-0.11840478,-0.17324863,-0.00252994,-0.23062350,-0.21569648,0.00734905,0.26386464,-0.39015254,-0.09195858,-0.20765051,-0.03340887,-0.09558041,-0.08166035,-0.16230574,-0.12268922,-0.08499214,-0.33324933,0.11852500,-0.23777945,0.18830943,0.24472125,-0.31930336,-0.14772248,-0.04716075,0.26647812,-0.13332638,-0.04746339,0.10240252,0.03471948,-0.28692025,0.25941962

-0.01145844
0.03264801
-0.00014186
0.03809758
0.00712395
0.02234240
0.00466157
0.04903973
0.05965571
-0.02886977
0.02876293
0.03014298
0.00546029
-0.01471561
0.05849150
-0.08017498
0.07742616
0.02552845
0.00699922
-0.03836685
0.08557756
-0.02674225
-0.02052554
-0.02354452
0.04162307
0.02842895
0.00424624
0.04943395
-0.00264472
0.01502793
-0.06184708
0.03464720
0.00008305
-0.01699323
0.08571105
-0.01200167
-0.00440468
0.03027169
0.06942455
-0.01048434

-0.07339343,0.05579166,0.16386309,-0.23964135,-0.40092421,-0.03553976,-0.24445255,-0.44966429,-0.28722018,-0.19084983,0.13170713,0.30061910,-0.01212453,-0.59320301,0.35402599,-0.19912609,-0.04104747,-0.30012509,0.16388468,-0.13401677,0.22940958,0.27164000,-0.28840068,0.29203156,-0.05929122,0.03383799,-0.00049841,0.24295519,0.21237470,0.04094806,0.42325434,0.32953560,-0.02840479,-0.05916524,0.42560685,-0.51148486,-0.07357425,0.24564163,-0.29157507,-0.09617553
0.13404055,-0.47353077,-0.41015184,-0.21768145,-0.36508197,0.02498007,-0.32019731,0.26620200,-0.24658372,0.13618085,0.28200170,0.06715446,0.31718332,-0.27036494,0.30140066,-0.22148770,-0.24949421,-0.04638466,0.41192397,-0.14051053,0.08673042,0.26413789,-0.23136970,0.16829714,-0.26551485,0.22782841,0.07172994,0.20186125,-0.16362298,-0.18075830,-0.21322507,0.25790352,-0.54426354,-0.15860042,-0.10993059,-0.46053505,-0.08383095,0.16527690,-0.03970676,-0.18097830
0.35602948,-0.08905958,0.20941047,-0.04641810,-0.47458816,-0.40599954,0.03497240,0.16514996,-0.25332910,0.00015509,0.16288269,0.20470692,0.20513639,-0.11088062,0.07302537,-0.14395201,-0.26805300,-0.06215827,-0.15998603,-0.57691783,-0.23254599,0.15146913,-0.71356553,0.14571045,-0.21395822,-0.15018776,0.07661624,0.35603604,-0.18945460,-0.22224742,0.02051725,-0.03846914,0.11134256,-0.31661919,0.19464514,0.15889096,0.07303871,0.02638926,-0.42487869,-0.01657317
-0.22478791,-0.23287074,-0.29098848,0.18781073,-0.27460083,-0.17864071,0.01830922,0.01254795,-0.04397910,-0.14404927,0.09879944,0.33487955,-0.34645745,-0.27775785,0.04207732,0.18317710,0.20901516,-0.33016664,0.26615906,0.10486007,-0.42908016,0.24881409,0.05482116,0.30416214,-0.16132832,-0.17034964,-0.01261601,-0.16149499,0.21922936,0.23236477,-0.24930926,-0.11256278,-0.30243075,0.11337272,0.00360295,0.28844014,-0.14754710,0.16289182,-0.19034636,0.07175166
0.07164267,-0.07643612,-0.03467269,-0.04124091,-0.02946043,-0.16052175,-0.01091468,-0.15737833,0.01970335,0.00954805,-0.14131509,-0.00864598,-0.07858168,-0.47685599,-0.02517678,-0.53552377,-0.20225453,0.26482102,-0.16413271,-0.48223495,0.03648884,-0.28134781,-0.30349880,-0.06728229,-0.03202752,0.16186063,0.24334565,-0.13117580,-0.03015558,-0.10828727,-0.03838385,0.24845012,0.20926344,0.16290937,-0.18716598,-0.44466925,-0.09441747,-0.05852681,-0.07542278,-0.31022462
0.16707291,-0.14721687,-0.35132265,-0.00901518,-0.04757613,0.10020784,-0.08212086,-0.16844258,0.25923979,0.13302189,-0.21678586,-0.00512196,0.08568213,-0.27444515,0.21467339,0.31760713,-0.17037474,-0.14264089,-0.18498228,-0.02909689,-0.20986339,-0.06713445,-0.39337626,-0.21112856,0.29759616,-0.03707392,-0.03074622,0.00823745,0.11588723,-0.25862089,0.15104724,0.19151366,0.22324756,-0.20874305,0.06733097,0.05597194,-0.22690247,-0.12578189,0.19527672,0.08514694
-0.22928944,-0.18954962,-0.37680089,0.31182611,0.03715096,-0.03474238,-0.15391368,-0.03257336,0.04105434,0.18321164,0.15223169,0.26541731,0.33475593,-0.41025195,0.10182968,0.12651402,-0.00418480,0.04515189,0.13295516,0.24943821,-0.24121390,0.00694705,0.11657463,-0.20552322,-0.35747537,0.01676467,-0.15044552,-0.04158772,-0.00764076,0.00555484,-0.06874134,0.26153064,-0.27347004,0.32535264,-0.21101157,-0.28380755,-0.09318054,-0.41022536,-0.21788689,0.13604046
-0.13894852,0.27736330,-0.00018816,0.01829366,-0.01506200,0.13296212,-0.14170562,0.07420631,0.03459140,-0.17044094,0.31451192,-0.03398183,-0.03522268,0.09893578,-0.34543300,0.31244823,0.01820924,0.14077435,0.04294073,-0.01441598,0.04786758,0.22212265,-0.39166895,-0.19782935,-0.18561514,0.03731783,-0.09957087,-0.09723844,-0.09965781,-0.15947083,-0.24686670,-0.20343624,0.29430023,0.21702169,-0.13026313,-0.27814695,0.23049825,0.15862752,-0.21501021,-0.11651085
0.06943087,0.15370952,-0.11158343,-0.19218421,-0.04221234,-0.33100867,-0.20836703,0.02384477,0.01192804,0.22068755,0.15071250,-0.00672508,0.24036275,0.21428491,-0.20902060,-0.05204303,-0.01747192,-0.09184463,-0.11189446,-0.17654665,0.16371205,-0.02724445,-0.40924701,-0.22474946,0.13159080,-0.21940780,-0.11178189,0.03201529,0.06760885,-0.22836472,0.23494653,-0.49366447,-0.03722264,-0.12571818,0.12508065,-0.38907796,0.06596240,0.18668054,-0.27354020,0.31055158
-0.29797587,-0.26077679,-0.21348469,0.18643382,0.25668940,0.00866855,0.12876377,-0.04774269,0.06328801,0.25493330,0.05453866,-0.10896594,-0.16200551,-0.10644449,-0.04957873,0.15471900,-0.13875934,-0.10676213,-0.10935548,0.08357877,-0.16958778,0.03495979,-0.01490695,0.13993844,-0.06153308,-0.00681165,0.18355486,-0.07162470,-0.41713455,0.18088995,-0.29552919,0.21784315,-0.20223077,0.21543960,-0.18472363,-0.19842932,-0.01164091,0.18170363,-0.20051908,0.08309698
0.16935223,0.06891248,0.06573959,0.24328350,0.23238981,-0.10896101,0.13986695,0.09205777,-0.19871704,0.29106104,0.02912770,0.00985081,0.02708320,0.10014548,-0.19947223,0.10285243,0.13665955,-0.17750050,0.03936524,-0.17125019,0.00296944,-0.46585909,-0.30713639,-0.21636750,-0.37619665,0.15184005,-0.31383172,0.26001129,-0.01828728,-0.13912365,-0.16405594,-0.03293995,0.16017719,0.17600034,-0.29653770,-0.07534751,0.14204438,-0.13284416,0.00930084,0.06271519
0.27164254,0.27129596,0.28654507,0.07866661,-0.09844492,-0.14525561,-0.21335064,-0.20868380,0.17457166,-0.01952102,0.41019553,0.09734130,-0.62916064,0.34260005,0.08370522,-0.20838876,0.01161606,-0.06422985,0.05365102,0.00697938,0.00055580,-0.42184886,0.27493209,0.13942398,-0.30764014,-0.02360584,-0.25841224,0.25671867,0.20464048,-0.11961889,0.17283674,0.07963651,-0.00654530,0.21307360,0.04552047,0.04607469,-0.11843354,0.22258893,0.08912484,0.04673875
-0.07315373,-0.30412993,-0.35416800,-0.18244959,-0.10926931,0.08246924,-0.02921181,-0.19302276,-0.14644809,0.12535705,0.23605137,-0.26556882,0.26939699,-0.17341650,-0.08554593,0.00566135,-0.07373890,-0.08080578,-0.31588605,0.26491621,0.26024464,-0.32664099,-0.06191743,-0.26756930,0.14443703,0.24424036,0.20582846,0.03467574,0.22542608,0.09487528,-0.27599937,-0.34588042,0.21377568,0.00388858,0.24037699,0.27452949,0.00625126,-0.17069563,0.23882885,-0.21515104
-0.27443194,-0.21745773,-0.09942912,0.13057004,0.12169959,-0.05690134,-0.27884620,-0.07463989,-0.05536655,-0.05656169,-0.24121976,-0.09420970,0.23505585,0.15827926,0.14694031,-0.01528757,0.24777602,0.03176511,-0.29325980,0.23705323,0.21360660,-0.04940295,-0.03883203,0.26035208,-0.17329459,-0.33027321,-0.18346772,-0.11436244,-0.06638467,-0.03451042,0.20014153,0.19330196,-0.08756840,0.21455191,-0.06590766,-0.20406176,0.08225293,0.18870971,-0.00106645,-0.09367146
0.05104114,-0.26360098,-0.27301401,-0.09060005,0.01975159,0.10744610,-0.06616292,0.00850955,0.14250901,0.16481353,-0.54982352,-0.09433243,0.00181882,0.09762460,-0.30454305,0.31808263,0.17379344,0.33811906,-0.10415024,-0.03499032,-0.09602208,-0.16933525,0.07744974,-0.23498259,-0.21239519,-0.00137170,-0.06346820,0.12583767,-0.47201976,-0.01597860,0.05828105,-0.14077091,-0.39780444,0.11590177,-0.12007739,-0.17273098,0.06325316,-0.15706462,0.00665905,0.29807600
0.31258160,0.51081026,0.28464171,-0.01770766,-0.12572348,0.30200157,-0.04825823,-0.33390379,-0.56270659,-0.07797606,-0.26987794,0.14447342,-0.36377677,0.06396921,-0.19163156,0.34973180,-0.07112075,-0.24980310,0.20526507,0.20462316,0.19931121,0.08378422,-0.27670857,0.13933145,-0.15058993,-0.16184866,0.04390734,-0.12591162,0.44286466,-0.46219689,-0.01431650,0.00873506,0.16796166,-0.12338929,0.02833971,-0.19169739,0.04322645,-0.08671458,0.18902963,-0.10300694
-0.07920936,-0.15615183,-0.08836161,0.06173377,0.38159752,0.41508007,-0.09653847,-0.38637814,0.04585748,0.32772350,0.01007105,-0.23593348,-0.27654883,-0.09308142,-0.06191908,-0.00519395,-0.03917417,0.02795254,-0.01094793,0.11424598,-0.19844197,0.45452923,0.36522940,-0.33102301,-0.31814873,0.25757307,-0.30199984,-0.07448484,0.22326635,0.40100506,0.01386786,-0.14596085,-0.35075715,0.31724247,-0.43227512,0.21527217,-0.12614091,-0.38606924,-0.07868036,0.21962470
-0.28153720,0.04414481,-0.25752950,0.27431309,0.07195797,-0.18605512,-0.20152506,-0.13442226,0.27414209,0.02452274,0.09656260,0.19350456,-0.21718927,0.08630548,0.14466165,-0.23010662,0.36022344,-0.03176735,0.25701451,0.11830851,-0.12716608,-0.13515341,-0.20499384,-0.22370727,0.03152084,-0.28147870,0.01686853,-0.14248914,0.32685721,0.39643544,0.08903059,-0.22915229,0.13377063,0.13525154,0.31833151,-0.17829260,0.29975277,-0.03733505,-0.22464594,0.15620364
-0.08918606,-0.04111898,0.30383161,0.17136408,-0.08020442,0.05602766,0.17011431,0.19919057,-0.24121188,0.12292641,-0.11696861,-0.23034759,0.34996852,-0.12673230,0.23725617,-0.40823045,-0.19607475,0.02291407,0.16791345,-0.10040464,0.08937823,-0.04262618,-0.08444263,0.17704496,0.29130691,-0.10176191,0.02779448,0.09476499,-0.15516226,0.27177650,0.20965818,-0.04016599,-0.26310450,0.17464213,-0.13014397,-0.13328087,-0.12348610,0.37599531,-0.23547386,-0.32666925
-0.01205068,0.02487556,0.00538893,0.31578436,0.13906316,-0.13752805,0.14091441,0.40871421,0.19781680,0.05942935,0.18573894,0.10956949,0.09048241,-0.06465554,-0.05018872,0.37066111,-0.29745778,0.17735715,0.22995467,0.13956200,0.06607997,-0.14062694,0.34126788,-0.36742917,-0.46352372,0.23006411,-0.11273423,-0.10784913,0.09181569,0.10875255,-0.19248216,0.03427897,-0.06322455,-0.07083165,-0.17850748,0.44213507,0.10349926,-0.17725596,-0.05423493,0.49978647
-0.12359969,0.07739989,0.04135828,0.11344410,0.25030518,0.21774061,-0.47749534,-0.40125653,-0.52744514,-0.15442137,0.10077333,-0.03620872,-0.00104054,0.20713495,-0.09697235,-0.36643493,-0.06382065,-0.03749003,-0.03637392,-0.05798071,0.20612960,0.23517747,0.27860337,0.12179298,-0.08074861,-0.16078393,0.15685140,0.25847772,-0.26113164,0.23377253,0.13984762,0.17144439,-0.27784821,-0.17534822,0.16988283,0.10717015,0.18622582,0.07211556,-0.06557629,-0.52789962
-0.16060874,0.01865832,0.04634774,-0.04717997,0.29044661,-0.22087501,-0.22503799,0.07088232,0.19633217,0.31744224,0.35280234,0.17611490,0.03865528,-0.13484107,-0.11716478,-0.00221552,0.25222531,0.40379190,0.04535734,0.06016369,0.06353863,-0.09588449,0.27870658,-0.03078800,0.08775102,-0.05247742,0.20526437,0.08519550,0.28120700,0.31469887,-0.12195713,-0.43042508,0.33358467,0.04163067,0.06969918,-0.21239103,0.35403895,-0.03126946,-0.20081772,-0.18366307
0.26995826,0.08054949,-0.37478685,-0.04097035,-0.06180934,-0.05106670,0.06246709,-0.36798301,-0.18597944,-0.17700127,-0.04506025,-0.31413880,-0.22583959,0.23014224,-0.03028822,0.08333055,0.32671335,-0.41552562,0.21679811,0.18884660,0.02227707,0.12401070,0.01190635,0.03354133,-0.27585813,-0.31664467,0.29187241,0.16899046,-0.10511452,-0.33340698,0.03466333,0.24474631,-0.34150007,-0.18071410,0.14779197,0.18336217,0.18899752,0.25023752,0.08229233,-0.08597022
0.01057467,-0.06658079,-0.03858214,-0.04582803,-0.36190680,0.11422249,-0.01083069,-0.00356181,-0.09243342,0.13207288,-0.13751402,0.30321655,-0.16736659,0.16628690,-0.21533288,-0.25924024,-0.15608589,-0.00077290,0.08701031,-0.28004494,-0.00662992,-0.28779069,-0.18504497,-0.00232854,-0.39854878,0.02108948,-0.18061553,0.28172013,-0.12341764,0.25969765,-0.33967245,-0.08019146,0.26810050,0.20081805,0.19514437,0.06245838,-0.15315400,-0.23216164,0.12753406,-0.26671401
-0.05703267,0.18617411,0.05736003,0.16399883,-0.18123920,0.01720481,0.04247264,-0.06761713,0.11061938,0.27200878,-0.18446960,0.07042223,-0.02043584,0.22216102,0.20809558,0.05375185,0.08629160,0.16655764,0.23530017,0.29059696,0.23061346,0.13550033,-0.20955184,0.17648327,-0.04821640,-0.11096025,-0.07701233,-0.08821551,-0.28365615,0.07169089,-0.00709013,-0.11701974,-0.08025388,0.17144923,-0.13356484,-0.35943186,0.09771672,-0.16025221,0.20030282,0.32545048
0.02204056,-0.40769503,0.07660601,-0.21231377,0.29910612,-0.13180393,0.12043877,-0.36268529,0.00312154,0.11819713,0.33142230,0.02645717,-0.28852701,0.18927242,0.13866220,0.27135125,0.28993794,-0.04468824,0.14545999,0.27653018,0.17042455,-0.52409267,-0.17910761,-0.16664086,0.28542116,0.31585294,-0.22870994,-0.12504596,0.19568282,-0.38779545,-0.02317486,-0.33575845,0.30497482,0.13025329,-0.18588817,-0.20936815,0.26062262,-0.03444968,0.14886485,-0.22572182
-0.02561662,-0.27526829,-0.43698680,0.06998601,0.11830848,0.12418345,0.21268845,-0.11607219,0.25375319,0.08478186,0.21474336,-0.05788822,-0.22356482,-0.22843726,0.02939271,0.11068147,-0.13234690,0.09823414,0.05627151,-0.08477267,-0.12503672,-0.23925315,0.08973765,-0.00348424,0.00565311,0.07376219,0.12139546,0.26444289,-0.08419214,0.06848850,0.21337712,-0.04651703,-0.35727486,0.00710365,-0.15670247,-0.13607912,0.26471311,0.07968715,0.20722495,-0.08017781
0.14025444,-0.48805040,0.00604298,-0.25854078,-0.17549103,-0.06202275,0.16111137,0.37327120,-0.31386837,-0.16873889,0.22107024,-0.23140930,-0.30119455,0.19515774,0.11165722,-0.28567988,0.06636686,0.14017060,0.26101646,-0.32556671,0.09518906,-0.21213399,0.11559620,0.37024117,-0.27119881,0.21039750,0.07798515,-0.13994677,0.12592903,0.05854005,0.36471587,0.18598536,-0.56213558,0.16624850,0.21380757,0.00131019,-0.39802626,0.33357069,-0.10364112,0.10917629
0.20614521,0.23454051,0.03823907,0.16089477,0.11825598,0.02031100,-0.06561973,0.25764716,0.19692709,-0.05503049,0.12018443,-0.08457951,0.15820880,-0.21417023,0.24587573,-0.15112568,0.27113917,0.13792922,0.08450734,0.22151025,0.16368882,0.09476259,-0.18129194,0.10626391,0.15266666,-0.44684678,0.24149777,0.17793207,-0.15061083,-0.16486989,0.13377798,0.20518473,0.18343395,0.06639860,0.18124002,0.34119183,-0.19766764,0.12028203,-0.04593417,-0.11922427
0.16327991,0.21191363,-0.13692437,-0.13583449,0.11202311,0.20005807,-0.06026881,-0.15921463,-0.15740770,0.17387147,0.00167623,0.30114752,-0.20245171,0.15686823,-0.11811710,-0.08099324,-0.24526142,-0.11154934,0.13827905,0.27377030,-0.21948141,-0.46229842,0.01215207,-0.01061786,0.16790897,-0.01522924,0.10933130,-0.25365427,0.24306892,-0.01961466,0.19366966,0.24202178,-0.14431031,0.11159043,-0.27465963,-0.07504338,0.27840093,0.20977512,-0.08121926,-0.26937988
-0.13160524,-0.25899646,-0.12603825,0.14605615,0.29601276,-0.01555913,0.22752874,0.01867188,-0.21087366,0.00932384,-0.11771701,0.09505161,-0.33783939,0.13548194,-0.07496683,-0.19532672,-0.27533293,-0.09871192,-0.29325193,-0.15257446,-0.27084121,0.24817827,0.05147145,0.22013557,0.18220255,-0.16644773,0.33752003,0.14003539,0.12404891,-0.49093750,0.19537775,-0.12320623,0.00462400,0.06259522,-0.23745461,-0.36707550,-0.02611139,0.22376534,0.19055915,0.13166124
0.11436234,-0.02106540,0.11524661,-0.04372273,-0.22398041,-0.35870239,-0.12300573,-0.05879373,-0.06481431,-0.25933871,0.28565359,0.12507348,-0.08291898,0.30263034,0.03706239,-0.26162195,0.19850391,0.16494486,0.30629203,-0.38154018,0.16194832,-0.40810010,-0.02160707,0.16575311,0.28904831,0.08134069,0.40721080,-0.02362863,0.03648786,0.17271091,-0.08741844,0.10177909,0.14965875,0.07239848,-0.42485893,-0.10106820,-0.23769817,0.26452601,-0.21821851,-0.12209450
0.03574501,-0.08621604,-0.39991969,-0.00159381,0.18870366,-0.01754146,-0.14292324,-0.01976965,0.27748907,0.23350176,-0.09547216,-0.39004862,0.09874625,0.06525737,-0.13352168,0.10285763,-0.01120400,0.37517437,-0.22852893,0.22982585,-0.15621658,0.00570881,0.02360842,-0.19015551,-0.12457272,0.32312721,0.15824714,-0.38697994,-0.49451011,0.14970107,-0.46558383,-0.39027762,0.20249662,0.30629098,0.24510171,0.20236294,-0.05354484,-0.24498540,0.39913931,0.25163528
0.26878113,-0.23465312,0.11204029,-0.08052726,0.06977452,0.23988166,-0.24275078,-0.05540212,0.09824140,-0.14753899,-0.17201976,-0.35748520,-0.21297874,-0.10373917,0.25603443,0.15220308,0.01011174,-0.01457115,-0.23397653,-0.20230478,-0.21956304,-0.09629041,0.09089585,0.32365057,0.24603245,-0.06105497,-0.08720692,0.20992076,-0.18403134,-0.29122204,0.16296875,0.27508712,-0.03446057,-0.20373479,-0.32158157,0.00533192,0.17552204,0.09669338,-0.05598473,0.06465298
0.06825436,0.19212693,0.11228847,0.27128330,-0.02333112,-0.17189206,0.15333994,0.29345617,0.06438783,0.17712831,-0.42699859,0.09260386,-0.41070583,0.09417328,-0.18066898,0.05013662,-0.03701139,-0.34444821,-0.10176388,0.22368757,0.37964308,0.31478024,0.24592590,-0.18810195,0.18887764,0.20253739,0.01142265,-0.23202862,0.26190194,-0.12038680,0.15568498,0.24813412,-0.35148376,0.23847210,0.04620559,-0.27543834,0.26808757,0.09718592,-0.09201901,0.51841974
0.18216494,0.18381664,0.03949263,0.21065211,0.22474375,-0.11930719,-0.24184702,-0.40738818,0.19063990,-0.25493214,-0.27681264,-0.21694115,-0.40213510,0.25581446,0.28171775,-0.24714571,0.03259490,-0.10231511,0.22143517,0.15909681,0.37523654,-0.03798413,0.03277269,0.19812609,-0.13349620,-0.06098133,-0.29832348,0.26706752,-0.14694782,0.02883115,0.18977413,0.10248498,-0.17412540,-0.11749994,-0.17618348,-0.10189873,-0.24269219,-0.01456199,0.26316661,0.15526153
0.15472449,0.31770048,0.08077758,0.02257674,0.05367251,0.09299974,0.26581663,-0.25670671,-0.11866791,-0.06373652,-0.31013915,-0.21641427,-0.04389208,0.24234639,0.05496586,-0.16456385,-0.19288766,0.01222029,0.11301183,-0.23152104,0.12672430,0.16575745,-0.15601857,0.09354309,-0.16527109,-0.17764686,0.12256029,-0.24318719,0.15623565,0.33013877,-0.00480067,0.14825320,0.15746972,-0.01715154,-0.41738299,-0.11348061,-0.21213870,-0.13939531,0.24894463,0.17946501
0.29567963,-0.14486943,-0.33078876,-0.05185467,0.25933251,0.16300189,-0.22290349,-0.24136584,0.15832934,0.26673496,-0.32614949,0.05459255,-0.25380352,-0.24965638,0.26775134,-0.18369836,0.27136472,-0.00582505,-0.03602897,0.21354651,-0.15945789,-0.20360376,0.07732046,-0.14393605,-0.24775560,0.01913727,-0.23770249,0.09312903,-0.03126502,0.01959804,0.01754978,-0.17627923,0.14802092,-0.05656313,-0.37605569,0.01522463,0.20870595,-0.26074889,-0.03415333,0.05086149
0.14313520,-0.55937272,-0.38632539,0.17735562,-0.18924013,0.20784652,0.07759248,0.21796797,0.07414273,0.18811607,0.17207558,0.10007484,0.22210753,-0.06375287,0.14247590,0.15322621,0.02339342,0.22785813,0.01652939,0.07728627,-0.21486045,-0.00946733,0.27474302,-0.17029493,0.05875397,0.19687964,-0.11493076,-0.02152895,-0.11487306,-0.02676353,-0.09167239,0.19523254,-0.33962429,-0.05428338,0.03904390,-0.54525733,0.12268344,-0.02028596,0.21569370,0.05826949
0.01062202,0.28087336,0.01518971,0.28246391,0.16353774,0.22335824,0.11830467,-0.33623704,-0.17767027,0.09333510,-0.22086772,-0.01579361,0.24403150,0.08990362,0.26309869,-0.25076365,0.29857391,-0.48903185,0.06877626,-0.06051723,0.18122537,-0.27167889,-0.16656236,-0.16528250,-0.19746606,0.03206609,0.18997282,-0.00244875,-0.10995312,0.27732062,-0.28181368,-0.11560792,0.12485828,-0.00618538,0.07914925,-0.22344202,-0.26287368,-0.11111315,-0.21545078,0.24027365

0.01847203
0.01303241
0.09601362
-0.00405791
0.00914700
0.01327739
0.00707179
0.10205730
-0.03443520
0.01090593
-0.01315185
-0.03114342
0.02366646
0.05950610
-0.04104325
0.06317192
0.08384789
0.04572330
0.09452870
0.04518418
0.03741812
0.02583169
0.03622464
0.02064253
0.03322145
-0.01752047
-0.00981358
0.02026036
0.01779059
0.00915930
-0.02033937
0.03514141
0.01700676
0.01069178
0.01693527
-0.10127199
0.05755697
0.02676444
0.06370839
0.02087300

-0.48729339
-0.60060513
-0.73828721
0.34356195
0.36503676
0.20688133
0.20026904
0.38851050
0.33614418
0.36082512
-0.45362633
0.59170622
0.86959243
-0.35961467
-0.20550902
0.63994586
0.37437221
0.21921785
-0.31968024
0.27233902
-0.36636946
0.57474262
0.78489786
-0.16119154
-0.39189246
0.44731894
-0.23516789
-0.34096870
0.77430427
0.66254854
-0.22305034
-0.40089816
-0.26666200
0.11539698
-0.36401927
-0.56407374
0.25413904
-0.35467777
0.19890967
0.67621124

-0.00400303

