alpha: 0.01
n: 1
pca: False
-0.30937472,-0.35332522,0.10962611,-0.20284726,0.06228287,0.20243043,-0.05828784,0.13476209,-0.17099342,-0.05375598,-0.02168013,0.25056347,0.04807890,0.01357905,-0.23687194,0.34173292,-0.17466833,-0.23512183,-0.26043037,-0.10556413,-0.16887704,-0.05956604,0.00650491,-0.32361484,-0.42815468,-0.17108725,0.13621601,-0.05847748,-0.22714002,0.17556548,0.31580859,-0.12209678,0.02713814,-0.23411873,-0.09449892,0.02962633,0.00529620,0.23504825,-0.16618477,-0.16973191,-0.07701251,-0.16291834,-0.24173218,0.01487608,-0.00553748,0.05710669,0.20297833,0.08010004,0.23645256,0.01342598,0.31457993,-0.05468268,-0.02866940,-0.34832200,-0.38203216,-0.12850481,0.18791221,-0.06176203,-0.29391178,0.05740128
0.14626627,0.10901251,-0.16053301,0.07649311,-0.21906029,-0.10203315,0.31228441,0.14395311,0.09559029,-0.34084418,-0.09016155,0.21817417,-0.26176271,0.04956035,0.12732391,-0.25841853,0.01955911,-0.27640894,0.15102287,0.27622893,0.14666376,0.20457594,0.34550688,-0.22305232,-0.15918395,-0.15099657,-0.03455872,0.30169907,0.19073014,0.14032844,-0.11096992,-0.14451833,0.11432775,-0.30999392,0.49480307,-0.28123543,0.23245858,0.02006924,-0.17085181,0.07248842,0.18913761,-0.24664171,-0.01538101,0.05175348,0.05121188,-0.02622348,0.18137686,-0.17377579,0.27774134,-0.29367936,-0.10109583,-0.24771020,0.12376077,-0.26490176,0.13453831,0.02265164,0.16602017,0.31620491,-0.19180237,-0.06631429
-0.05430352,0.17987217,0.09616268,-0.14210759,-0.14986154,-0.26307839,0.36701214,-0.31454021,0.09408696,0.10698620,0.46050707,0.27087396,-0.24444285,-0.02816758,-0.29056031,-0.02550069,0.30241486,-0.27869475,-0.27790561,-0.38200447,-0.21526131,-0.15479113,0.01783822,-0.05013905,0.15568115,-0.28670618,-0.29996982,0.11402620,-0.24207096,-0.02838496,-0.23866345,0.11862368,-0.13002095,0.20344074,-0.10216737,-0.30690512,0.23802228,0.11305911,0.04711835,0.18843699,-0.24618936,-0.26242220,-0.25728968,0.20246826,0.07767264,-0.36249399,0.04299322,0.31415859,-0.24173829,-0.27071190,0.08638760,-0.06620560,0.15275104,-0.04070058,-0.20459269,0.27572304,-0.10835353,-0.05875273,0.06440231,-0.09977076
-0.11149292,-0.05422036,0.21032327,0.15607579,-0.35900858,-0.05243643,0.26136887,0.33663362,-0.09953236,-0.01698149,0.02479756,-0.22060411,-0.17604384,-0.16515632,0.06749467,0.08980339,-0.21606988,-0.13047424,-0.06863450,0.03192244,0.08971816,0.18545100,-0.02370572,-0.16729175,0.02927410,0.20244819,-0.25503743,-0.10430264,0.03100274,-0.18849273,0.03358364,-0.19767168,-0.16710472,0.07305623,0.01588942,0.24137796,-0.20987546,-0.05625602,-0.04877831,-0.01893712,-0.24489558,0.12761949,-0.15826637,-0.05057495,0.24059393,0.30139324,-0.18742704,0.36177784,0.00933422,-0.03370149,0.22679983,0.33976606,-0.21930580,0.04355349,-0.15153141,-0.29075709,-0.14155841,0.20647363,0.31690213,0.15507017
-0.21509941,-0.13989455,-0.12058448,-0.27569577,-0.31923538,0.23588790,-0.09797502,0.31542769,0.14847159,0.01110104,-0.24339026,0.08420029,-0.03007013,0.09553543,0.27124527,-0.14463814,-0.12447471,-0.13348296,-0.18713193,0.33867118,0.04924022,0.26529911,-0.00336474,0.27729055,-0.31028026,-0.28707033,0.00063472,0.04897940,-0.51068294,0.34742498,-0.06771072,-0.06368691,-0.41416487,0.10393721,-0.11045913,0.13132401,-0.09066787,0.28941098,-0.40427279,-0.41762322,-0.13283113,0.03099743,0.14335507,0.14493179,0.15600702,0.15658498,0.16421367,0.24971639,0.13330458,-0.21485427,0.21924721,-0.01625988,-0.17124078,-0.08012497,0.34836319,-0.18143985,-0.41401821,-0.30477929,0.12867492,-0.11616937
-0.05774698,0.02005155,0.07323629,0.25021386,-0.06868075,-0.35680985,0.11698871,-0.27315938,-0.30048510,0.16034420,-0.25167829,0.23200677,0.22547464,-0.28642523,0.29616776,-0.20392902,0.05724362,0.21904093,-0.28298306,-0.15876964,-0.17910126,-0.14141992,-0.25180340,0.25780442,0.03529581,0.23432800,-0.08997098,0.27893841,0.05850758,-0.17863899,0.07256816,-0.12183814,0.14111844,-0.37656316,-0.17158213,0.06043573,-0.06354933,-0.07239586,-0.07320279,-0.15871763,0.26458496,0.02926426,0.08189774,-0.30490431,0.04319683,0.09781943,0.10573743,-0.08707040,0.03020393,0.13410215,-0.00912248,0.15856791,0.27607405,-0.12179817,-0.00022464,0.04394317,-0.15491852,0.31559274,-0.03049869,0.29954779
0.31590295,0.06306031,0.23387094,-0.19352472,0.22275777,0.25999105,0.04240248,-0.07688985,-0.26731429,0.01984245,0.18666366,0.08535375,-0.08863178,-0.23177153,-0.14304774,0.10828365,-0.03130995,-0.20320110,0.16415320,0.14799845,0.27330151,0.19877361,0.33420753,0.23939328,0.06834624,0.39297417,0.27125317,-0.17676263,0.03403478,0.00916264,-0.14429578,-0.17042452,-0.04138975,0.25162268,-0.41368634,0.11617024,0.02182228,-0.23154654,-0.05722093,-0.45207489,-0.24662015,0.26433799,0.13546361,0.16653083,0.32207873,0.16636376,0.38693458,0.15354313,-0.00597621,-0.32874605,0.17281522,0.15023683,0.10213677,-0.00139624,0.03864157,0.20080827,0.04361069,0.07014876,0.14902121,-0.11432937
0.02220094,0.15390533,0.16844293,0.25849813,-0.01986885,0.01691507,-0.24398908,-0.08889208,-0.18106942,-0.25556904,-0.09221866,0.11818077,0.43581361,0.37181896,0.00559912,-0.29119775,-0.09314943,0.19740324,-0.38044351,-0.14485411,0.29926276,-0.08503281,0.11833864,0.23197502,0.16670850,0.19950733,-0.27927789,-0.08679835,0.06741474,0.26146105,-0.25663683,0.18408583,0.07814669,0.10983660,-0.12010913,-0.05157952,-0.00375989,-0.13411584,0.01160245,0.01820862,-0.35359579,-0.43735462,-0.35280344,0.09653363,-0.09422567,-0.40511346,-0.18580408,0.24100029,0.19571641,-0.31539112,0.11414308,0.10493959,0.30792278,-0.06081032,-0.00217667,-0.06442425,0.10473001,0.03363691,-0.16482328,-0.04732604

0.08821277
0.04045888
0.03539684
-0.04044504
0.09738027
-0.04199852
0.10458942
0.12007321
-0.03392033
0.00903376
0.01632868
0.00441259
-0.09489071
0.04515908
0.14872830
-0.07138681
0.04102034
-0.01198659
0.00201764
-0.01864202
-0.06054676
-0.05300086
-0.06739026
0.01263095
0.04600540
0.13270479
0.15705869
-0.09277461
-0.01323353
0.03233162
-0.14913906
-0.04898509
-0.10248289
-0.05174148
0.05450608
0.04187896
0.01024722
0.07606655
-0.05558834
0.04718752
-0.11347347
-0.10858036
-0.02519020
0.00811383
0.00310384
0.03785647
0.07267161
-0.05288324
0.00914209
0.00406803
0.09870306
-0.04024043
-0.00610388
-0.01177654
-0.01418907
-0.00287437
-0.03585569
-0.05224333
-0.04804861
-0.00277646

0.10892840,-0.29931563,0.15254693,0.36544377,0.09234198,0.17615385,-0.30170572,-0.25522166,-0.00825235,0.02079573,-0.20323698,0.14781986,0.15461065,-0.20650107,-0.07691551,-0.03734248,-0.13938923,-0.08785535,-0.07951666,-0.18710561,0.05472291,-0.05191121,-0.17946324,-0.12788753,-0.21222682,-0.07722423,-0.12541947,0.05237098,0.07941432,-0.32276696
-0.20248316,-0.21255752,-0.12128091,0.22167210,-0.02261968,0.03850091,0.15349168,-0.12111430,0.00507774,0.16830525,0.20156132,0.16798227,0.14284018,-0.09256638,0.26920822,0.14980268,-0.26653367,-0.56096619,0.28170198,0.17029181,-0.04932834,0.08993897,-0.00962210,-0.16395749,-0.15179907,-0.27430382,-0.07403570,0.18948136,-0.06356341,-0.19972390
-0.13581489,0.18536244,-0.01820204,-0.08972500,-0.13279602,-0.21844329,0.03034438,-0.19737220,-0.01915387,0.17660235,-0.20147929,0.01279225,-0.23866864,0.06619693,-0.17669293,-0.11480226,0.25367460,0.03488307,-0.31303495,-0.15268351,0.15121275,0.04501816,0.10397470,-0.07236002,0.13490219,0.03345545,-0.19647126,-0.06816739,-0.33521873,0.16250876
0.12958105,0.07373694,-0.00538307,0.02703569,-0.24648686,-0.22485501,-0.09874149,0.21418503,-0.15505216,-0.20751233,0.19399315,0.07779535,-0.15036570,0.19484967,0.16573337,0.00288775,0.00595772,0.05445454,0.05448839,-0.02350053,0.00790566,0.21487528,-0.29067367,-0.14050630,-0.13258283,-0.10175980,-0.14587343,0.19756892,0.21049796,0.15511072
0.03791907,0.21006463,0.08497799,0.01532634,0.01729921,0.23676266,-0.07026625,0.06487842,0.27483791,-0.12630388,-0.03115916,0.03007738,0.12272291,-0.01106352,-0.12764256,-0.28850940,0.04691495,0.10279825,-0.16240582,-0.00009246,-0.14827405,-0.19143286,0.27594954,0.12237618,0.21820883,0.25646451,0.12968108,0.04454613,-0.06895897,0.11543943
-0.10323316,-0.13423838,-0.27395543,0.07150845,0.19071946,-0.11119869,-0.04798115,0.08795481,-0.23656620,-0.05000706,0.29533574,0.02755550,0.23783627,-0.22649579,-0.38204908,-0.14826794,0.09647725,0.21408689,-0.07409912,-0.19754979,-0.04184540,0.11875850,0.01338414,0.00805568,0.00871120,-0.17532378,0.22380032,-0.07547372,0.21433887,-0.27364731
0.19094345,0.14842474,0.21470855,-0.15476352,0.07556611,-0.07942111,0.18482819,0.27010819,-0.11652704,0.20943108,-0.11923147,-0.24877749,0.10061901,0.26385060,0.12901624,-0.31533420,-0.00240032,-0.24523832,-0.13399699,-0.27694133,0.05752047,0.01987056,-0.23074920,-0.22468376,-0.23216984,0.12766923,0.07654262,-0.12038743,0.18567333,0.05928635
0.00998818,0.18477261,-0.26770467,-0.23422933,0.20975465,-0.03606743,-0.02872791,0.22148161,0.07141268,0.27288976,-0.24254605,-0.17267239,0.14983061,-0.00413480,-0.25160044,0.06822915,0.06247377,-0.03113010,-0.07871585,-0.06890873,0.07017761,-0.33799151,0.23567434,-0.20830974,-0.19539799,-0.16583639,0.17278716,-0.13660477,0.15406607,0.25030732
0.16772078,0.18512584,-0.29988271,0.13626748,0.13041292,-0.02857394,0.25491261,-0.12346764,0.18773070,0.25721321,0.11717893,-0.18106355,0.26536652,0.06369232,-0.25196168,-0.15558796,0.23950447,0.09097821,-0.20746572,0.07924405,-0.12978968,0.20887761,-0.25342175,-0.00773693,0.11019178,0.04341828,-0.21819291,-0.18176159,-0.13485800,0.15220538
-0.05360284,0.24411461,-0.07210226,-0.10835975,0.10158104,0.31606603,-0.16141054,-0.03110695,-0.31681815,0.15393397,0.10918841,0.09397574,0.09783783,-0.29844379,-0.22591311,0.26683709,0.00832477,0.24226445,0.02949159,0.34936497,0.15381920,0.29469517,-0.32114491,0.19165432,0.04582484,-0.15695608,-0.34843314,0.27322146,0.00689122,0.00625146
-0.10514315,-0.12371968,-0.13145092,0.10354202,-0.04777705,-0.19705409,-0.04299216,-0.08123260,-0.11014796,0.08662575,-0.06156689,-0.14992853,0.38220596,0.06430463,-0.09714789,-0.30891266,-0.12444621,-0.36729255,-0.05423779,-0.03622422,-0.18765235,0.06020200,-0.08312503,-0.05806454,0.12480782,0.07224950,0.14393111,0.09185127,0.08441916,0.23185487
0.07716025,0.36985940,-0.10387510,0.19026159,-0.00985264,0.14900935,0.24068135,-0.22590311,-0.31734779,0.23582938,0.19189352,-0.09510858,-0.14157675,-0.17277758,0.17765105,0.08288116,-0.07625633,-0.14490534,-0.12870675,-0.10210039,-0.02795703,0.08228644,0.10803002,0.01646378,0.01402170,-0.16321561,-0.14348301,0.02163815,-0.07923696,0.19244306
-0.00188851,0.00243865,-0.24761689,0.14164588,-0.07690102,0.15926276,0.31302682,-0.38300183,0.08501263,-0.12388068,0.16683896,0.16849016,0.01031527,-0.11533935,-0.05401960,0.17976452,0.02200480,-0.01866730,0.11278275,-0.16910909,-0.11474357,0.17239958,0.30014741,-0.23444951,0.11031587,-0.05123204,0.07036201,-0.21903613,0.01785047,0.01950205
0.06516313,0.08002226,-0.12909357,0.03627091,-0.08279347,-0.23351000,-0.14134122,0.15375748,-0.04936169,0.02277800,-0.17035851,-0.12582965,-0.04522750,-0.11008829,-0.13526389,0.09285896,-0.20498687,-0.23247209,-0.25220323,0.09352285,0.11980772,-0.28129026,0.04136277,-0.18051402,0.19855125,0.20378171,-0.01461501,-0.37048098,0.23522253,-0.16090727
0.08279315,-0.20668916,0.13370587,0.24572748,-0.25624231,-0.08041526,-0.32049826,0.09846968,0.08296938,0.26209727,0.16981430,0.11198022,-0.20953009,-0.05134326,-0.07280312,-0.20195211,-0.23663265,-0.10731712,0.07369652,-0.05064812,-0.17454545,-0.02112250,-0.09744500,-0.03490409,0.08040155,-0.31068045,-0.13897078,0.20143209,0.22736710,-0.13042670
0.05073649,-0.21384041,-0.11278470,-0.00428900,0.04438215,0.15654896,-0.05151492,-0.16353838,0.00306914,-0.04457212,0.06416690,-0.23482980,0.11985838,-0.11299619,-0.10539445,-0.11452865,0.22573800,-0.15382476,-0.56231993,0.24517971,-0.15169337,-0.09385744,0.02257545,-0.18948780,-0.00964866,0.18703957,0.13474277,-0.12514022,-0.25934693,0.29275066
-0.21031518,-0.19975495,-0.23784725,0.22133815,0.24340473,0.14920473,-0.26741394,0.10850555,-0.32286194,-0.17288058,0.03303507,-0.16050377,0.28697017,-0.07255745,0.03841470,0.19438575,0.28730848,-0.10048939,-0.04529751,-0.11315316,0.08141256,-0.05744007,0.20199089,-0.20380828,-0.13518427,0.25512847,-0.12069100,-0.32579869,0.26347527,-0.11638644
0.12832348,-0.26545352,-0.17865260,0.17921044,0.02976191,0.25660104,0.24872740,0.20295198,-0.26321995,-0.22383890,-0.07220917,-0.20531660,0.20482787,-0.20407984,-0.24443375,0.15417095,0.03680720,-0.08466294,-0.17084843,-0.35921642,-0.12441109,0.23756750,-0.05068997,-0.15880144,0.20044811,0.08693232,-0.29115576,0.25622809,0.10088208,0.19251159
0.24598356,0.10580634,-0.01238150,0.13051115,0.18217200,-0.20033407,0.13172543,0.12083568,-0.21557693,0.09949384,0.25978109,0.23726499,0.02488047,-0.03096666,-0.29051957,0.02737129,-0.00525999,-0.33519450,0.01452968,-0.06713354,-0.25965533,-0.12466273,-0.26982075,-0.41822767,0.13998163,-0.14255217,0.17477980,0.21899644,0.07020250,0.18461590
-0.13130565,0.24524125,0.16913505,0.07494573,0.13681149,-0.12773351,-0.02855485,-0.08013984,0.23243007,-0.04056753,-0.14873275,0.05266391,0.02200918,0.16992401,-0.14888942,0.00768283,0.10882936,-0.19272710,0.21146671,0.04968059,-0.23015386,-0.01173383,-0.09784568,-0.29332682,0.04486879,0.05615502,-0.00410866,-0.25965557,-0.09909162,-0.21466458
0.03162939,0.03447922,-0.11332311,-0.09360645,0.04300317,0.24259017,-0.16464551,-0.06203113,-0.10982212,-0.04199263,-0.01758572,-0.05946381,-0.07794756,-0.11732647,-0.04830398,-0.23225117,-0.10917630,-0.09002436,0.13548720,-0.25973085,-0.28215083,-0.03563203,0.24751142,-0.06519885,-0.01886658,-0.07016125,-0.13183819,0.05703901,-0.31761941,0.30653909
-0.06612522,0.19569054,-0.23341602,0.17956515,0.02770772,0.00600158,-0.10939736,0.04748229,-0.13178770,0.18959415,-0.08245712,0.00215954,-0.20130590,0.03213343,-0.44914263,0.11531743,-0.19809787,0.14111364,0.06943256,-0.14353167,0.24204461,0.17302133,-0.18254198,0.00579852,0.13460086,-0.22917119,-0.03350971,0.26897699,0.21156624,0.19701494
0.04297522,-0.12556426,0.01619368,0.17333911,0.20596091,-0.08500753,0.26047373,0.07060646,0.00562433,0.03442051,-0.11894423,-0.07670613,-0.15162754,0.12264285,0.03911404,0.02806645,-0.10873894,-0.05500442,0.00682456,-0.16036417,-0.12471351,-0.14252320,0.13907993,0.05949704,-0.08463043,0.05841695,-0.24506336,-0.09619144,0.04057171,-0.11404853
0.03058751,-0.04217604,-0.14878212,0.11974406,0.16022649,0.33758885,0.03817724,-0.27769732,0.05364506,-0.06090969,-0.29347548,0.25502968,0.07482980,-0.29096466,-0.27068555,-0.19198041,-0.29052147,0.20442882,0.20471233,0.03303187,-0.10638820,-0.01242158,0.19808567,-0.25994891,0.16771251,0.05513183,-0.19550630,-0.06275553,-0.09131284,0.25264502
-0.11041701,-0.01997132,-0.15409043,0.29756474,-0.08015780,-0.13250048,-0.29818031,0.07937513,-0.19747302,0.10030049,-0.28265628,-0.07180865,-0.10336189,0.07561425,0.05569459,0.20457251,-0.20173052,-0.22755404,0.10882704,-0.21818115,0.09033982,-0.10660786,-0.20940557,0.21872060,0.14035901,-0.03536996,0.05196770,0.02393375,0.03562034,-0.13923126
-0.09283505,-0.08596103,-0.07364325,0.04263944,-0.27964574,-0.13304953,0.01821264,0.15556808,0.22895740,-0.01282336,-0.15666123,0.14480862,0.14186344,-0.10704675,-0.05131460,-0.15773129,0.12297383,0.37677115,0.11527175,-0.24716699,0.22689068,-0.21940163,-0.15170997,0.12206070,-0.23215500,0.05516549,-0.23954649,-0.16578177,0.01767825,-0.14347029
0.04618368,-0.01517904,0.05107138,0.05977660,-0.16658880,-0.07787725,0.25068724,0.16512996,0.14298382,0.18260932,0.14062588,0.09463941,0.32447335,-0.17371638,-0.28365040,0.08615941,-0.04408075,-0.24882598,0.02287003,0.00004120,0.21602361,0.22050633,0.07669698,0.20688517,0.15385666,0.29391536,-0.14812036,-0.16212012,-0.17869212,0.05561794
-0.08460568,0.36977386,0.23522720,-0.21118633,-0.12044751,0.32393414,-0.27990931,-0.16789527,0.08850348,0.03756975,0.34588432,0.23959537,-0.11114737,0.11884329,0.10698923,0.10087600,-0.04095268,0.16322225,-0.09857564,0.19700254,0.06994154,0.13033533,0.08350483,-0.02855718,-0.09528413,0.02861716,-0.11473580,0.08022439,-0.06659973,0.03971240
0.08568107,-0.42851686,0.04403627,0.33910057,-0.37878713,0.30144018,-0.30216840,0.15335727,0.17576627,0.07521373,-0.15127735,-0.13169208,-0.15872903,-0.01780893,0.04979480,0.10096353,0.04484221,-0.06492814,-0.31710309,0.14342864,-0.19132482,-0.19364953,-0.07558498,0.35931247,-0.08978961,0.23767604,0.27830568,-0.00004723,-0.18574025,-0.09037765
-0.01050351,-0.10843223,-0.04540665,0.05855460,-0.03154658,-0.10417245,0.02004426,-0.11537459,0.11911163,0.01353861,-0.07485926,-0.29956794,-0.10283519,0.38566348,0.12349462,0.05192958,0.19901654,-0.03707693,-0.12978013,0.15712979,0.24560998,-0.02549922,0.20259432,0.11487599,-0.02964354,-0.13712120,0.04614212,0.02825879,-0.00075679,0.19997402
-0.26805204,0.14468963,-0.38192606,0.09863733,-0.00557467,0.27655742,-0.21344158,-0.24457066,0.27129391,-0.15958017,0.14830852,-0.27457318,0.23135239,0.04837369,-0.04064893,0.03053822,-0.13441147,-0.17621963,-0.01993334,-0.04966620,0.18541500,-0.17063925,0.04392502,-0.20217106,0.00894357,-0.11146755,0.06947832,-0.20392117,0.11278424,-0.08566400
-0.12647505,0.20026167,-0.23013812,0.18678284,0.11441335,0.03336124,-0.26694781,0.29498494,-0.23624252,0.03867572,0.11424717,0.22975673,-0.16329087,0.11599525,0.18588573,-0.13751696,-0.21185434,0.11654703,-0.09498817,0.01894522,0.08024177,0.30401629,0.07081082,0.19401376,0.14113155,-0.08747947,0.19304195,0.00183845,0.14830744,0.07075536
-0.05152125,0.23732373,-0.02164613,0.19092119,0.13551076,-0.16197950,-0.26774132,-0.09796119,0.13727126,0.06480750,0.10192291,-0.11240633,-0.13766016,0.19426627,-0.09364010,0.23817757,0.13264121,0.16292402,-0.07411357,-0.09721441,0.11876776,-0.05114871,-0.04317021,0.10431316,0.09101897,0.23668498,-0.14200263,-0.09081990,0.21056865,0.10624604
0.00658663,0.14761636,0.30972627,-0.15680984,-0.19345868,0.24855937,0.00483882,0.21499547,-0.13222316,-0.11007012,-0.15231901,0.20532838,0.19732724,-0.13176711,0.10331865,0.04048834,-0.13470577,0.05335457,0.19351703,0.02096403,0.10894030,-0.17641737,-0.05331260,-0.01453623,0.13451348,0.25940856,0.35911858,-0.31845251,0.06195189,-0.00942521
0.10782277,-0.23260824,-0.17955926,0.07693671,-0.32362336,-0.10801324,0.23212795,0.04785842,0.20989802,0.03905497,-0.08691520,0.07693125,0.05144025,0.39311212,0.39315069,-0.02425284,-0.11929917,0.09526515,0.06652518,0.17293192,-0.19656114,0.01891384,-0.18630265,-0.39907211,-0.19130194,-0.05497669,-0.22940315,-0.12932803,0.11406312,-0.19036765
-0.03638102,0.16170922,0.10945828,-0.17610233,0.11032052,0.09651558,-0.22905511,-0.20104922,0.12873824,-0.09032343,0.05264131,0.17928311,0.01649344,-0.09098733,-0.40460977,0.23166671,-0.14705476,-0.17070018,-0.19977710,0.27233982,0.06569377,0.13829260,-0.01975195,0.07520531,-0.24561037,0.18616171,0.03096560,-0.07935067,-0.09737771,0.07993567
0.14084269,-0.13493130,0.27488726,0.00347709,-0.00202454,-0.33448198,0.18500684,-0.27118468,-0.33301282,-0.15342373,-0.16830219,-0.14195409,0.03096996,-0.05358671,0.24873015,-0.28588477,0.10426406,-0.32428020,0.10290115,0.14029326,-0.05789261,-0.19389336,0.13241243,-0.08592629,-0.12227064,-0.11264899,-0.20125699,-0.14481537,0.18743916,-0.06240156
0.09689727,-0.17485009,-0.03444708,0.09895375,-0.07503412,0.13096493,-0.04946932,-0.23489930,0.19596499,0.17614275,-0.19293030,-0.33810711,0.20146540,-0.06910204,-0.22499600,0.06924793,-0.12376872,-0.01207474,-0.15875609,-0.01471038,0.15473667,-0.39028156,0.16499135,0.24342456,-0.28679091,0.14200129,0.10277251,0.19438007,0.26923057,-0.11950527
-0.04075311,0.03584212,0.00533534,0.02538656,-0.23285389,-0.17923926,-0.07869694,0.05044641,0.00095450,-0.23208168,-0.20041895,0.21167411,-0.07079016,0.05430928,0.15378499,-0.04140083,0.16541657,-0.34790337,0.02286161,-0.32572368,0.24312451,-0.01433267,0.02731252,0.22149399,0.05605064,0.03658051,-0.23236115,0.00851684,0.21158062,-0.02619008
-0.04599269,-0.04325383,-0.18285283,0.18759544,0.04859244,-0.03109933,-0.02065584,0.18004578,-0.06813108,-0.09278732,0.05792171,0.13649306,-0.11200020,0.14225136,0.33114919,-0.06601901,0.25908509,-0.14920753,-0.23044717,-0.19061357,-0.00248818,-0.22578433,0.08689721,0.06330330,0.19944681,-0.02815348,0.12725784,-0.03218994,-0.14544202,-0.06449787
-0.11509991,-0.34147251,0.04285671,-0.24948491,-0.21933770,0.18193533,-0.31022993,-0.05535836,-0.17637880,0.01878847,0.26678252,-0.06128396,0.14910708,0.18091321,0.08889596,0.04444523,-0.14276958,-0.09161876,0.08251853,0.25927168,0.11335674,0.19263050,-0.01032381,-0.11059217,-0.16273668,-0.01104230,0.25938317,0.23549245,-0.10557368,0.07730512
0.02963861,-0.18746114,0.26476318,0.11919481,-0.24634942,-0.02424031,0.08804729,0.13351405,-0.08880397,0.16328749,-0.10952769,0.01266303,0.12658595,-0.19760688,-0.31844223,0.05739710,0.09207013,-0.06340890,0.17501739,0.28015155,0.02758340,0.16006926,0.15155448,-0.00380585,0.07182521,-0.22935943,0.10680053,0.17199430,0.06894421,0.18408270
-0.02500905,0.12490276,-0.07259542,0.29136032,0.23239493,-0.15625899,-0.00691919,-0.00409546,-0.09426141,0.27049032,0.06097550,-0.03119273,0.07187393,0.07357661,-0.06958675,-0.05383150,-0.00327881,-0.11791221,-0.04733329,0.23084921,0.24726710,0.03973998,-0.01170389,0.03639868,0.24030545,-0.13111183,0.28066650,-0.25414708,0.21641612,0.15612771
0.22006094,0.28624371,0.21834454,0.15860951,-0.07621261,0.19623259,-0.05214189,0.01415499,-0.24893963,-0.16229279,-0.15355706,-0.07028399,0.05415417,-0.05868816,0.04075469,0.17757514,0.21967058,0.03389640,0.04993385,0.13126491,-0.09752722,0.09847856,-0.07675451,-0.16013987,0.23060374,-0.03351583,-0.11922816,0.22887343,-0.24328184,-0.07520131
0.04636900,0.13768254,0.03389846,0.14743476,-0.07476819,-0.13617751,-0.07649659,-0.13094875,0.17510431,0.18725285,0.26490659,0.14844342,0.01585106,-0.03150568,-0.03868285,0.18153851,0.00552654,0.11229911,-0.01439506,0.26278144,-0.11427500,0.25858641,0.00319164,-0.11776200,-0.22774523,0.05918991,-0.16215006,0.18962885,-0.06463708,-0.06989621
0.18090026,0.01254379,0.15459991,-0.18424937,0.04018533,0.03427223,-0.12652437,0.22012590,-0.22336996,0.11951494,0.09936878,0.03238961,0.17416511,0.17074096,-0.10439661,0.09077406,0.04238140,0.10788348,0.02318130,0.01065282,0.27718639,-0.20875499,0.01041526,-0.07433036,0.14731055,-0.53629625,0.13515888,-0.29032657,-0.23338389,0.23711528
-0.12033284,0.23485911,0.27374822,0.25243157,-0.03407952,-0.11534852,-0.17487751,0.23605476,0.06208182,-0.26836115,0.23207295,0.00097509,-0.02112094,0.07408372,0.01757757,0.07583405,0.17665535,-0.09663782,-0.23328257,0.15289825,0.27679479,0.22126219,-0.10722438,0.07234715,0.01580352,-0.27498734,-0.14770482,0.16425985,-0.15274921,-0.01544246
-0.14619268,0.17297952,0.28268042,-0.19778039,0.05690517,-0.14725098,0.00189998,-0.04811533,-0.08806600,-0.01648534,0.03709239,-0.12824349,-0.20798732,-0.05572205,-0.33825931,-0.12916791,-0.32190526,0.17331420,0.15008341,-0.00415874,-0.23300019,0.20252000,0.23108625,0.14543556,0.30453378,-0.23518431,-0.11171959,0.12568466,0.13718286,0.28223863
-0.42042619,0.01913145,-0.20956562,-0.32904318,0.00660090,0.13603501,0.01620304,-0.28973365,0.03432985,-0.12236307,0.17298529,-0.02191538,0.00066446,-0.05831638,0.03524743,0.19151089,0.05053341,-0.18730609,-0.31377846,-0.22240554,-0.36733207,-0.05407355,0.02978744,0.04862601,0.04862701,0.04127388,-0.17599693,0.05528952,0.03757112,-0.07883602
-0.09892108,-0.14144897,-0.04722876,-0.14138503,0.25143278,-0.19148615,0.05095311,0.21063524,0.27236795,0.26654935,-0.20403148,0.26245642,-0.16200851,-0.19984925,0.17229195,0.08084545,0.23344103,0.10027295,-0.11681296,0.08900473,0.14622778,0.13703613,0.00141099,0.16589992,-0.04249566,-0.09732337,-0.30662987,0.05130944,0.05823763,-0.19003588
-0.06121032,0.05614264,-0.27135634,0.02946966,0.06902125,-0.31094658,0.22405216,-0.15784271,-0.01895043,0.12992558,0.12218058,0.15940095,0.16330583,-0.26940301,-0.27506679,0.27411234,0.00882855,-0.12979050,-0.20960626,0.15093751,-0.05708797,-0.17657194,0.24911456,0.26014999,0.10460725,-0.20505625,-0.10707633,0.13762158,0.28264031,-0.12616029
0.19481505,0.14929846,-0.15393494,-0.07021318,0.11751550,-0.19055648,-0.16211465,-0.23803119,-0.08344354,-0.18674010,0.09517995,0.16430855,-0.00703719,0.13161777,-0.03586498,-0.16673997,0.10996924,-0.19643396,-0.10119057,-0.14124441,0.12624368,-0.06711055,-0.21913572,-0.02280045,-0.15503083,0.07778523,-0.06160907,0.21280959,-0.12528729,-0.28976545
-0.23305233,-0.04943645,0.16794437,0.16279994,0.24786071,-0.30019546,-0.08834811,-0.13632697,0.06985887,0.10585232,0.24885252,-0.04341422,-0.20648904,0.20554350,-0.01119635,0.02077566,0.15666601,0.18359730,0.21526347,-0.22528800,-0.14571634,0.17166087,0.27359793,-0.16488591,-0.06051952,-0.01747373,-0.09382293,0.20945990,-0.12450404,-0.07737000
-0.03002658,0.24045487,-0.08260898,0.06551462,-0.26387638,0.14609668,-0.07813553,0.23545365,-0.17471354,-0.23878011,-0.13135138,-0.02598399,-0.17480813,-0.00968282,-0.00674592,-0.19121321,0.01330328,0.14739749,-0.03470850,0.00682538,0.23455010,0.21914084,0.05094688,0.24059275,0.14709654,-0.25887191,0.28086534,-0.06188571,-0.13551176,0.16137545
0.30905348,0.10041633,0.14450754,0.23944759,0.13626543,-0.16712356,-0.00620971,-0.19064735,-0.02445391,0.22599316,0.01884659,0.04119780,-0.14031717,0.12744686,0.25457051,-0.34739798,0.05607753,-0.05135829,0.25912923,0.14153817,0.02955713,0.02925956,0.01137681,0.21748704,-0.06405441,-0.04738196,-0.06895189,0.25646761,0.11614170,-0.06451215
-0.18129991,0.19519709,0.09516496,-0.10828318,0.12233500,-0.03667835,0.08954255,-0.10287306,0.16266225,-0.15695070,0.04589279,-0.02273684,0.23469701,-0.01856964,-0.05827097,0.02100930,-0.12869953,-0.23530608,0.26669806,-0.18835182,0.13664022,-0.12230598,-0.08522908,-0.06173870,0.18362834,-0.14106306,-0.09538141,-0.04750655,0.08344735,0.12760077
-0.17944936,-0.22972003,-0.12043271,-0.23455933,-0.22142462,-0.15553568,0.09099479,-0.17321487,0.12787405,0.15111129,0.07145412,-0.02881452,-0.02043440,-0.05039751,0.18391325,0.21642393,-0.09779464,0.21509221,-0.53849053,0.01266736,0.13173820,0.17426667,-0.07598337,0.14596121,0.25515914,0.18103981,-0.08880082,-0.17305493,-0.18081239,0.06812488
0.21829626,-0.24531490,0.25926444,-0.05576167,-0.02058102,0.02703464,-0.05339816,0.26298124,0.16054927,0.04842979,0.09767480,-0.18083462,0.05562194,0.10127886,0.09454931,0.01182967,-0.33595833,-0.17236714,0.24427110,-0.00500564,-0.00617941,-0.17109342,0.01830909,-0.10588937,-0.31926244,0.30240217,-0.15429965,-0.02075177,0.23043096,-0.04778505
0.23677899,-0.23199479,-0.09413255,0.15443276,-0.14827511,0.14753574,-0.14225093,-0.06474291,-0.23900217,0.00394483,-0.34255934,0.37748870,0.05020754,0.14465816,0.16144377,-0.25736499,0.04667956,0.02643729,-0.26721194,0.11175053,0.03183286,-0.14619337,-0.15183565,0.07376535,0.26162648,-0.37000906,0.00174163,0.05153913,0.16929799,-0.12030998
-0.09661237,-0.13356200,0.20569487,0.08199042,0.26822963,0.11682840,-0.00518165,-0.05220261,-0.15480092,0.19737419,-0.15052053,0.19364333,0.20711529,0.16895074,-0.21457347,0.16204795,-0.03268931,-0.03014580,-0.13905095,0.01325460,-0.27602372,0.13913764,0.14056429,-0.03987410,0.02977541,-0.12005085,0.22890915,0.10061038,-0.25363356,0.13904479

0.07470400
0.03067483
0.08059487
-0.03015887
0.02768890
0.01424436
-0.00901236
0.00869493
0.00518559
0.04102319
0.01511144
0.01249119
0.06614777
-0.12562540
-0.05713481
0.02056187
0.02312703
0.05908572
-0.01032488
-0.03072631
-0.04546030
-0.04614427
0.01270627
0.04467331
0.02317258
-0.01102113
-0.06217281
-0.01660670
-0.06357132
0.01470129

0.22083060,0.17785807,0.41162455,-0.08685367,0.11122272,-0.06500760,-0.15996625,-0.28389218,-0.16910623,-0.25419298,-0.04418769,-0.24927439,0.11499149,-0.45427892,0.17075168,0.25082359,-0.03580115,0.18584740,0.28512558,-0.06613440,0.42705697,-0.01457194,0.23204555,-0.33071053,0.19022973,0.04513649,-0.26846278,0.30470142,0.09669098,-0.01767487
-0.12962322,-0.36864626,-0.19792774,0.15966964,0.25505504,-0.39092058,-0.02375324,0.10461003,0.15434925,0.26223376,-0.09351696,0.34171084,0.17921886,0.20457512,-0.20334418,0.20976135,0.25232679,0.33674371,0.23734352,0.02744813,-0.17388836,-0.23119548,0.13110709,-0.13688135,0.03427302,-0.63810980,-0.13598356,-0.25717586,0.08107495,0.14234313
0.10683145,-0.31777772,0.19613358,0.11456450,0.27927434,-0.11536911,0.30356428,0.40270758,-0.04890275,0.12385125,0.08932409,-0.16510205,-0.03082982,-0.12210917,0.19369434,0.36472920,-0.19053610,-0.30160493,0.15582940,0.13060732,-0.40366536,-0.06855777,-0.13207977,-0.09266978,0.08152288,-0.20507555,-0.07265898,-0.47571263,0.30625141,-0.31901905
0.26849142,-0.27396235,0.27427253,-0.21007586,0.28850770,0.22400671,0.03017304,0.00660004,0.16571476,-0.20636933,-0.36816138,-0.24139079,0.30959934,-0.09198447,0.17688783,-0.31305251,0.06598838,-0.10414816,0.23759329,-0.24019812,-0.03643232,-0.00969185,-0.38314730,0.05318484,-0.13430107,-0.33931705,-0.07723467,0.37541839,0.02423174,0.18914823
0.12963921,0.06548171,-0.00278489,-0.31760076,0.20118670,-0.27251115,0.09122779,-0.46613136,0.31383640,-0.14797594,-0.26315591,-0.31476977,-0.29871991,0.24336328,0.06098089,-0.17941166,0.18987696,-0.43887207,0.16825259,-0.21772279,0.08311260,-0.43265676,0.16382998,0.27934122,0.04805670,-0.06270810,-0.12361985,-0.06529193,-0.26170382,0.03994581
-0.04095773,0.19238095,0.31055722,0.25536266,-0.34003410,-0.01618198,0.17293586,-0.18725987,-0.20481768,-0.32980511,0.07863653,-0.26269844,-0.15685166,0.13893595,-0.00963985,0.04612418,0.10495798,0.05787491,0.06688597,-0.46039367,0.15187673,-0.15514924,0.35101086,0.28053480,-0.30920708,0.21904737,-0.21258540,0.05376760,-0.16978194,-0.17040350
0.23138277,-0.47687751,0.13728110,-0.15082458,-0.33658150,0.05358278,0.09806021,0.10638756,-0.10205192,0.37178671,0.02057042,0.20432353,0.24771862,-0.20716000,-0.33435127,0.15086600,-0.19044888,-0.02761151,0.24905591,0.39711103,-0.05722167,-0.17335075,-0.05715117,-0.09026121,0.44763717,-0.21657744,0.05468374,-0.06726071,0.09703566,-0.01329538
-0.47181195,0.20845024,-0.26874995,-0.15359789,-0.14276938,0.14131634,-0.09579287,0.19468199,0.00124633,-0.32531226,-0.14680550,-0.33095714,-0.05196712,0.34521848,-0.39084998,-0.24550794,-0.11948267,-0.07772671,-0.33527699,-0.40476418,0.11596118,-0.09087492,-0.09159889,-0.10627224,-0.04755127,0.26693031,0.16947129,-0.18801694,0.21169630,-0.19075011
-0.02150358,0.20747098,-0.11523920,-0.06283589,-0.31740540,0.26500580,0.29898399,0.30414212,-0.03547421,-0.33695975,0.08411969,0.10138679,-0.36904374,0.02863952,0.13952632,0.17661273,-0.04694091,-0.17418440,0.22795601,0.32832661,-0.29577333,0.35975277,-0.04218451,-0.09940632,0.04793235,-0.06524296,-0.12977524,0.07127035,-0.00520976,-0.30387774
0.10991263,-0.30510834,0.15474293,0.10240025,-0.40539393,-0.01396244,0.10270970,0.15463370,-0.13988547,0.00320354,0.00908794,-0.11951184,0.14643899,0.22909589,-0.14423519,0.07059956,0.19240333,0.25498044,0.11850490,0.24481244,0.06441814,0.04590163,0.19685213,-0.28445870,0.18339221,0.19583863,0.32248497,-0.25949341,0.03181494,0.01950647
0.18525781,-0.44587949,0.10650948,0.02046014,0.15277900,-0.11493748,-0.13848205,-0.19091927,0.25045702,0.21853393,-0.05371730,0.22705954,0.30818290,-0.26527950,0.07845023,-0.02231800,-0.06298994,-0.09902263,-0.20493887,0.00015870,0.19951047,0.12702288,0.22356896,0.08368558,0.14679009,-0.01213067,0.18374494,0.12939934,0.14344139,-0.24871561
-0.12462821,0.32388800,-0.05966149,-0.35595533,-0.13792172,-0.16421184,-0.20998913,-0.15818784,-0.06565610,-0.25025609,0.14292815,-0.00916600,-0.02737158,-0.20578521,-0.05721656,0.06578612,-0.26871583,0.12331300,-0.25813162,-0.29734042,0.20012933,0.22973958,0.19112730,0.17027314,-0.07933763,0.25989756,-0.25388423,0.04444430,-0.19514503,0.19568796
0.04263467,0.13656409,0.13464659,0.39389405,-0.00348272,0.08606195,0.28298742,0.28225482,-0.00666391,0.09376247,-0.28720823,0.23067515,-0.13296577,0.28389010,0.27407074,0.05056877,-0.01506068,-0.31367451,0.09550679,0.35462475,-0.10496839,-0.01541502,-0.32250163,0.08568184,0.05540803,0.15912952,0.23319139,0.06468923,0.32524672,0.33205917
-0.30923256,-0.11753009,-0.03270881,-0.13896793,-0.34516293,0.25902045,0.34038088,-0.41329616,0.22503620,0.25650597,0.30653638,-0.14379099,0.21419331,-0.12550940,-0.29319879,0.22063951,0.11455561,0.11293905,0.31727633,-0.28660411,-0.21855819,0.24225312,0.03323111,0.15123020,-0.00963250,-0.04222196,0.19288111,-0.04885687,-0.14369164,0.14876921
0.03158864,0.20755734,0.30024844,0.05301194,-0.29511395,0.06839760,0.19951116,-0.44545329,-0.28238937,-0.30198097,-0.29507467,-0.02739835,0.31480342,-0.27507660,-0.18828458,0.10712229,0.26573420,0.33089215,-0.03300254,-0.24978654,-0.17281757,-0.06729114,0.13177583,0.19740823,-0.05962530,0.17963873,0.19160081,-0.18738125,-0.29583794,-0.06054034
0.18678643,-0.13926879,-0.24530210,-0.28598669,-0.42174730,0.19837731,-0.10664714,-0.41554078,-0.04802531,-0.11361977,-0.14191048,0.37862182,-0.06193231,0.09944814,0.22801512,-0.15598652,-0.33975953,-0.21135667,0.23759189,0.28650078,-0.20449488,-0.00578067,0.02279681,-0.06626220,-0.18615432,-0.28778332,0.30379671,0.11018743,0.15481897,0.20345794
0.34589937,0.08624594,0.12115762,0.34350955,0.14683565,-0.04930183,-0.38110346,-0.28332254,-0.34451181,0.37705365,0.24379930,-0.21047318,-0.31503502,-0.17967911,0.10630435,-0.03273731,-0.02737214,-0.15413599,-0.05551130,-0.03409843,-0.17284143,0.08246782,-0.08785710,0.29795542,-0.21959768,-0.30742443,0.00317489,-0.16866839,0.29164955,0.21014702
0.54407853,-0.54102802,-0.00029533,-0.21208280,-0.00824540,-0.48710158,-0.17674565,-0.26984408,-0.14769328,-0.46242523,-0.21720102,-0.02100714,-0.01051751,0.07853132,-0.13939229,0.09965242,-0.32645792,-0.02973686,0.40214691,-0.10874511,0.27194467,-0.28658825,0.02816806,-0.30338746,-0.29557586,0.43218762,0.01508258,-0.18003389,0.49573946,-0.27783731
0.40410319,0.59318000,0.00192661,0.18694381,-0.36161035,-0.09244572,-0.26084223,0.17822178,-0.52298456,0.22080293,-0.53455251,0.09574058,0.00464759,-0.36853543,-0.17179643,-0.04683346,0.09704228,-0.51132172,0.18300292,0.07051677,0.32494599,-0.09857242,0.20152630,0.26970965,-0.12725680,-0.35799956,0.05091323,-0.00221845,0.35479328,0.12576567
-0.45632601,0.44243395,0.18886526,-0.15368044,-0.14483546,0.28703520,0.43422687,0.22776794,-0.23944959,-0.28153163,0.17774753,-0.23666456,-0.38952741,-0.20251794,0.15391752,0.26092082,-0.04598669,0.09066419,-0.06203101,-0.28018066,-0.57876033,0.42804343,0.12280983,0.26183343,-0.13945159,-0.31534255,-0.02570789,-0.56749684,-0.07657262,0.13754444
0.15664931,0.12674932,0.18387184,0.30687642,-0.23008285,0.30806744,0.19110419,0.08516095,-0.31224477,0.14401563,-0.05417798,0.26496384,-0.07712291,-0.18470305,0.14079972,-0.17955890,0.05125123,0.15613085,0.18762493,0.24296379,0.23491444,0.24608207,-0.34311613,-0.25821662,-0.03347180,0.21332026,0.12754491,-0.10104699,0.02305270,-0.17999746
-0.18723066,-0.34754634,-0.32610646,-0.02759714,-0.13834238,0.07128575,0.30355304,-0.13493374,0.22840892,-0.08358680,-0.07335987,-0.20956509,-0.21253301,0.39975092,0.26198918,-0.11695044,0.00106873,-0.07703218,-0.15475680,0.15013419,-0.12503828,-0.33532092,0.20227529,-0.00447149,0.38988841,-0.32341918,-0.29412195,0.20112690,-0.05316295,0.17431179
-0.22102630,0.31976849,0.26570824,-0.33527482,0.39302021,-0.27003467,0.29387641,-0.19864729,-0.21762265,0.33852640,0.00583954,-0.20774005,-0.14505547,-0.07794844,0.32923317,-0.33885768,0.24649768,-0.00854028,-0.13960619,0.17737168,-0.44842136,0.32212564,0.14376329,0.15824337,-0.21630704,-0.01668468,-0.18451191,-0.15610474,0.16993986,0.05719931
-0.10648277,-0.32916209,0.33464819,-0.25512147,0.14536551,-0.03735724,-0.25793901,-0.03265899,0.13983721,0.24817574,0.09313465,0.37539873,0.26001209,-0.11324241,-0.43152189,-0.23848492,0.16897298,-0.25642633,0.16748051,-0.03531050,0.27396670,-0.26554486,-0.27636829,-0.09676559,-0.04795253,-0.08652545,0.05066245,0.03836494,0.29625303,-0.62001479
0.23025580,-0.28791389,-0.10655191,-0.34909669,0.21546002,0.08903738,-0.36202073,0.15593237,0.15557520,0.29428393,0.15296918,0.07785804,0.31107953,0.14725153,-0.27181542,0.26142007,-0.07718371,0.29273748,0.11322974,-0.05843627,-0.20806077,-0.03020004,0.00769941,-0.25585565,-0.56554353,-0.11016253,0.26081213,-0.00411255,-0.00643927,-0.26771981
-0.36560518,-0.04361733,-0.23108526,-0.06194207,0.06442397,0.19138370,-0.26077121,0.03873040,0.05315049,-0.28845933,0.13169774,0.00466711,-0.24936987,0.36774650,0.06466491,-0.12520197,-0.07163900,0.28942546,-0.18869483,0.07516363,0.47531909,0.36699623,0.00290511,0.26452243,-0.32761812,-0.25669119,-0.06759671,-0.28673714,0.14726245,-0.09197020
-0.42014384,0.06164845,0.19234294,-0.21479455,0.34136322,-0.10372245,0.09438016,-0.07052192,0.35637298,-0.10553195,0.12487427,-0.20849630,-0.31089348,0.07357614,-0.01350551,-0.32554135,-0.46969703,-0.17711395,-0.15794584,-0.16709478,0.38546264,-0.00552248,0.28848001,0.18598293,-0.13936773,-0.06387740,-0.03021172,-0.14514050,-0.26398969,0.45769861
-0.29910082,0.10701521,-0.29488349,-0.07204281,0.20951480,-0.11498796,0.08855922,0.12979388,0.12243637,-0.20649759,-0.13876393,0.04487401,-0.00775160,0.15455730,-0.23944001,0.28292879,0.07798765,0.15592763,-0.10988873,-0.54467678,0.24146022,-0.06757085,-0.10200442,0.05765739,0.28964317,-0.01089077,0.28639475,-0.37557635,0.05242616,-0.27827242
-0.23230046,-0.30972216,0.08646014,0.06647171,0.21930774,-0.22183745,0.03687103,-0.17686057,-0.03856579,-0.38262773,-0.11050291,-0.45587826,-0.26162022,-0.06700425,0.29799083,0.30245987,0.00542085,0.19886874,-0.00299647,-0.34464070,0.19101717,0.15290272,-0.35532767,-0.22394657,0.09204776,-0.19363502,0.26744115,0.01134965,0.14327574,0.18123335
0.00942363,-0.30465019,-0.22125675,-0.08409846,-0.13341744,-0.01146191,0.15583733,-0.02772924,0.36378434,0.34711471,0.15055184,-0.06508981,0.23000103,0.12380730,-0.13881330,-0.35280159,-0.07529678,-0.24286999,0.22444284,-0.17787141,-0.13038009,-0.22265822,0.14396732,0.26511097,-0.39497253,-0.14831020,-0.32695737,-0.17159191,0.17559722,-0.32051921

-0.01224565
0.01916217
0.00309900
0.04362545
0.04341690
-0.02665021
-0.03404401
0.05724178
-0.02066708
-0.01933445
0.03355678
0.01656049
-0.00976426
0.04299560
0.03735558
-0.02361226
0.04437977
-0.02952052
-0.00429661
0.00166982
0.04255213
-0.02981809
0.08454855
-0.04101289
-0.05218815
0.02238041
0.04158448
0.01033824
-0.01864989
0.02171950

0.57852775
-0.70974422
0.31272218
-0.42586616
-0.54988724
-0.07846865
-0.34458745
-0.61481893
-0.29705215
0.66982245
-0.80010712
0.74740189
0.09195667
-0.12481918
-0.13845560
0.39848784
0.15735087
-0.61117357
0.36343473
0.56763357
0.29031831
-0.58238375
0.25897795
-0.51835185
-0.61348164
0.22346959
0.16323136
0.51502252
0.32938334
-0.36146942

0.00984452

