alpha: 0.02
n: 3
pca: False
0.35261971,0.33947510,-0.19291408,-0.04129679,0.07595079,0.56547987,-0.48141798,-0.41068962,0.27444255,-0.27699339,-0.11845418,-0.29336286,0.10228299,0.69104379,-0.22257178,-0.08530980,0.18843786,-0.31207943,0.45208484,-0.20527355,0.17313644,0.37361610,0.07284559,-0.50277698,-0.08538094,0.01348116,0.28362867,0.13004059,0.16450545,-0.05570018,0.41310990,-0.23763131,-0.15549070,0.17826003,0.09153336,-0.02035451,0.04863080,0.29012471,-0.03277731,-0.05004849,-0.06361857,-0.58604544,0.22276887,0.25097817,0.17403355,0.00342838,-0.24723446,0.16518122,0.02704212,-0.06410208
0.14941725,-0.23372917,-0.48765013,0.46469992,-0.13242023,0.20751067,-0.60406411,-0.10779027,0.12033712,-0.00747860,0.26812053,0.34461489,-0.26119417,-0.23871365,0.13537171,-0.40147987,0.47363046,0.10439934,-0.18920802,0.11463327,-0.35332340,0.19892322,0.47176588,-0.01206330,-0.64181107,-0.12627129,-0.14167213,-0.18382131,-0.30329719,-0.18742019,-0.09657467,0.30233878,0.47702175,0.22726682,0.17242353,0.34520388,0.38437325,-0.02165053,0.25349534,0.29827276,-0.41841412,0.40319347,0.36866805,-0.36025372,0.24092484,0.08880553,0.05754618,-0.16426606,-0.25488400,-0.18368988
-0.44002694,-0.09930740,-0.09923222,0.31585833,0.23725832,0.02091223,-0.17828688,0.01481806,-0.32253706,-0.23519945,0.00307463,-0.45860127,0.22399284,0.04019848,-0.06519122,0.29998648,0.38203669,-0.12972812,0.18973263,-0.32784680,0.08438163,0.12544833,-0.33922029,-0.13676529,0.02459133,-0.04585585,0.25289059,-0.35664359,-0.06779798,0.29109392,-0.23447259,-0.25312582,-0.07733500,0.20544726,0.45057231,0.07913740,0.06504022,0.27861345,0.12994532,0.05134308,0.28869733,0.28551239,0.12279655,-0.21685350,-0.09999766,0.50633311,-0.13412657,0.21003838,0.08684799,0.21776339
0.29089117,-0.08483007,0.04404905,-0.20467967,0.14520662,0.17227568,0.09187782,-0.25814626,0.26855221,0.02517491,0.08014961,0.02921277,0.01896800,-0.24297146,-0.03891574,-0.01798922,0.28628513,-0.43935749,0.22840621,-0.13453916,-0.23730506,-0.15224619,-0.06991924,0.15015797,-0.10702435,0.07869501,-0.22393622,0.21076180,0.06290287,0.11310811,-0.36952141,0.33480906,-0.16594075,0.13829722,0.10269681,0.22969407,-0.08218897,0.23821767,0.17873947,0.34324983,-0.10546409,0.04623388,-0.10666333,0.15519011,-0.29585823,0.11104739,-0.09964453,0.40453374,-0.03557687,0.40019977
0.11926011,0.21792066,-0.20154145,-0.36544457,-0.52797395,-0.38327658,-0.08864766,-0.00312866,-0.09275778,0.09186229,0.43504164,-0.30875146,-0.21959260,-0.11716940,0.26498136,0.04010495,-0.18487930,-0.16050816,0.20869102,-0.30442974,-0.07816616,0.02028741,-0.18584965,0.33112240,0.08664148,-0.01586876,-0.02945278,-0.43558899,0.07011012,0.20753831,0.01997681,0.28852749,-0.25567147,-0.15440497,0.36840037,-0.25246397,-0.03594082,0.24324639,-0.36865073,0.17164308,0.03337034,0.18736473,0.33005235,0.28950831,0.04496498,-0.07130371,-0.18746476,-0.23075385,-0.43427494,-0.03469227
-0.28654951,-0.59822154,-0.19122311,0.18462665,-0.32789412,-0.07650257,-0.34275648,0.31762776,-0.00528912,0.17323762,0.31971845,-0.12387681,0.36673066,-0.08749746,0.05664571,-0.28210172,0.02780183,0.02903409,0.06830449,-0.51273572,0.02581922,0.13817506,-0.04322441,-0.24236691,0.22576159,0.34074494,0.05075205,-0.19706358,0.37899715,0.12650110,0.09101404,0.16001868,-0.26567182,0.04405576,0.53423744,0.15125409,-0.21539301,-0.33819818,-0.20061554,0.35537621,0.27310604,-0.03575763,0.05411227,0.32786614,0.00306313,-0.20289332,0.20712698,0.05596911,0.02057242,-0.09076351
0.17579173,0.03501610,-0.00308362,0.12460101,-0.39435661,0.01374665,0.07382339,0.30608767,-0.11851931,0.06572541,-0.01969178,0.24367046,0.12930092,0.02825380,-0.40735188,0.39004824,0.23631833,-0.04504206,-0.29384807,0.07844265,-0.44207025,-0.06038333,-0.42027965,0.22073202,-0.27280873,0.12803783,0.46050113,-0.25441420,-0.31506687,0.23314509,0.46684092,-0.05144564,-0.43465331,-0.27791920,-0.30215257,-0.15562639,0.11570428,-0.03189299,0.03345098,-0.05461458,-0.26297393,-0.02148847,0.16359995,0.17906025,0.03314813,0.08101363,0.37340224,-0.00866755,-0.00042443,-0.04063318
-0.05787655,0.14741880,-0.89558470,0.06298820,0.12882277,-0.10430472,0.21940897,0.22591351,-0.67476410,0.40759373,0.06021078,0.31848177,0.24724053,-0.14388916,0.29625657,0.00153089,-0.28514344,-0.00135707,-0.10497843,0.23407355,0.22868600,0.32533565,-0.33700645,-0.48271716,-0.61738843,-0.90351266,0.14977482,-0.11221266,0.16600540,0.70758981,-0.15711935,-0.26422989,0.38889751,-0.16594103,0.17837061,0.37033099,0.04768742,0.22013891,-0.26015267,-0.00122384,0.21626249,0.11380411,-0.08831675,0.27011016,-0.10452431,-0.36310178,-0.37034231,-0.03873800,0.51917052,0.14813317

-0.12342277
-0.09901836
-0.11227609
-0.05089148
0.01034242
-0.15553287
-0.06953669
0.02680038
-0.05237647
-0.03393879
-0.02538503
-0.10366666
-0.03973436
-0.13323995
0.10928313
-0.04036982
-0.09792534
0.11510375
-0.01547087
-0.03135493
-0.15966496
-0.06747257
-0.06902480
-0.11048420
-0.31405115
-0.17042641
0.02318149
0.02295041
-0.12496441
-0.02745032
-0.05027508
0.07321142
0.13690269
-0.06554766
0.01434221
-0.09623881
-0.19446594
-0.05210397
-0.11036007
-0.18506576
-0.04345912
0.09885871
-0.29533532
0.03289583
-0.04081880
-0.10267889
-0.16481651
-0.07439992
-0.05037365
-0.03324397

-0.25957093,-0.03420297,0.18968567,0.04590419,0.11928128,0.03395310,-0.33866417,0.02287395,-0.08621381,0.21343298,0.05184137,0.05362105,0.41029799,0.09952703,0.14074962,-0.00186077,0.30410898,0.28069225,-0.03630548,0.13890105,-0.41117352,-0.04947379,-0.32848904,0.10491235,0.11654376,-0.14892998,-0.18507525,0.20874643,0.18457396,-0.16053699,-0.57497483,-0.01619259,-0.34838068,-0.31037414,-0.23576157,-0.22309645,-0.01055240,-0.05974688,-0.01715559,-0.27192292,0.12431674,0.01890205,0.17027755,0.21635076,0.17429264,0.08125236,0.21756168,-0.32583460,-0.27262899,0.32563266
0.54328907,-0.26614815,0.16620511,0.11342584,0.04463895,-0.06618302,-0.17216544,0.26162890,0.23916431,0.28883418,0.07950569,0.14395979,0.18141596,-0.14586113,0.12382488,0.14399745,-0.10152112,0.26876715,-0.13001724,-0.26488405,-0.33629945,-0.13162574,-0.31588122,-0.37054282,0.17073925,0.10069907,-0.25887963,0.17615761,-0.00104848,0.12522729,0.04032512,-0.27442265,0.27098703,-0.08262616,-0.91734737,-0.12265582,-0.20205170,0.25724328,-0.13040672,0.22873174,-0.22268729,-0.15612289,-0.10009378,-0.24538724,-0.01688289,-0.29083490,0.02710842,-0.04385781,0.05344474,-0.36433494
-0.01142994,-0.22202748,0.12250989,-0.15773007,0.17374842,0.19906428,0.14283076,0.14698900,0.01229918,0.01628403,0.49173132,-0.07064632,-0.12489932,-0.11338595,0.10271107,-0.08155268,-0.28859320,-0.00210123,-0.28504092,-0.30187175,-0.18489552,0.05195998,-0.05414757,0.07559623,-0.28381741,-0.23897462,0.35223430,-0.48268157,0.31423318,0.19006830,0.01474879,-0.42832503,-0.19294304,0.30241084,-0.05184415,0.19331473,0.05465367,-0.37438300,0.08703847,0.33479789,0.16533895,0.08882626,0.20985195,-0.18822390,-0.28231800,0.37418398,0.27610412,0.04072105,0.01680972,0.07371689
0.05763876,-0.05986803,0.08191643,-0.06461665,0.07448279,-0.27286351,0.16522217,-0.05289244,0.02741524,0.19831222,-0.13621412,-0.49098194,0.00357153,-0.15204507,-0.19282742,0.17903522,-0.24906731,0.13603061,0.10932387,0.20286499,0.06071866,0.30593026,-0.17435533,0.05321261,0.21696408,0.13348876,0.10504079,-0.21537167,-0.25774887,0.39978552,-0.29757720,0.19910906,0.30519640,0.28843847,0.16672602,-0.08067212,-0.10162442,-0.05451111,-0.15522505,0.17964442,-0.52636921,0.23402630,0.05153052,-0.06014630,0.29229164,0.03421605,-0.27747807,0.37811869,-0.10756554,-0.16775589
0.12308116,-0.11732809,-0.23032306,-0.18611047,0.31088808,0.25108680,-0.23511332,0.27407566,-0.06074582,0.14743817,-0.23264073,0.50649035,-0.00491421,0.23630527,0.41662073,0.21177927,-0.24945907,-0.16943119,-0.35731018,-0.01447014,0.33168799,0.09250665,0.30875877,-0.03912811,-0.96762401,0.18432455,-0.39083534,-0.03814880,0.19035909,-0.22365278,-0.13367568,-0.03151229,-0.40893146,0.35803509,0.15529655,-0.04132229,-0.09123201,0.18392999,-0.03359165,0.03347205,-0.51457524,-0.00159596,0.11860909,0.23279217,-0.05085459,-0.04489522,0.07340480,-0.33732009,-0.24099502,0.28111976
-0.20147450,-0.11373364,-0.03071724,-0.31010163,-0.09609442,0.08444986,0.18226956,0.27066419,-0.04170929,-0.18190905,-0.05279327,-0.38217652,0.06513841,-0.19515905,-0.11417650,0.19077356,0.18145430,-0.20500849,0.06858657,-0.37903216,-0.17679106,0.08928703,-0.14285088,-0.28746256,0.06710672,0.16164523,-0.31359166,-0.04965603,-0.00236754,0.16504271,-0.14306359,-0.00666955,-0.24008255,-0.71719694,0.27225941,-0.39468589,-0.02343319,0.13529472,0.16272946,0.13104901,0.02343121,0.02353058,0.08093487,-0.11330625,0.10294824,-0.05217529,0.15611294,0.29205284,0.05858135,0.11463336
-0.42152947,-0.12856618,0.07491910,-0.15165985,0.33041307,0.12645335,0.18501000,-0.28983724,-0.05657454,-0.49113482,0.28726953,0.31037232,-0.27985635,-0.38921115,-0.00041236,0.15583958,-0.13772455,0.18710536,0.08797277,-0.10578868,0.11109293,-0.05868793,-0.05742769,0.01002467,0.10641219,0.18227232,0.01637682,-0.65692806,-0.01012425,0.18753518,0.22536823,-0.23314933,-0.07837238,0.23413081,0.19745445,-0.24719311,0.32950473,0.29613084,0.08429764,0.00070220,-0.35129219,-0.08301529,-0.21685095,0.19854619,-0.33122581,-0.21902391,-0.14460234,0.04059211,0.22141720,-0.24395162
0.07966715,0.01046455,0.21287921,0.16804078,-0.35330170,-0.02734178,-0.26832932,-0.25243202,0.14550994,0.18426694,0.20690000,-0.15040691,-0.18067177,-0.34847596,-0.29144850,-0.04925779,0.28848922,-0.76757723,-0.08199470,-0.11333233,0.17537539,-0.18800901,0.06999202,-0.10597668,0.27112582,-0.09859207,-0.26889849,-0.07607309,-0.17697471,0.13889408,0.05329171,0.21157825,-0.14663279,0.28862613,-0.13668293,0.06500816,-0.12443691,-0.24891421,0.13471632,-0.01785189,-0.34530598,-0.02316155,0.14053066,-0.24743694,-0.04165314,-0.15819554,0.14100009,0.17463808,0.14253171,0.15090820
0.22777946,0.17716882,-0.42192996,-0.34769878,0.03061251,0.05178516,0.22160880,0.22882015,0.12439284,0.01793032,-0.00910615,0.20228840,-0.07850846,-0.19328131,-0.05508389,-0.08312935,-0.09137961,-0.26267973,0.21169864,-0.33022913,0.07785194,-0.21798450,-0.04474891,0.19052567,-0.18443857,0.24659348,0.32067919,0.12984270,0.22958831,0.11854568,-0.14595281,-0.10787293,0.06602988,-0.17270818,0.05945930,-0.07312048,0.01712973,-0.15872614,-0.00565339,-0.34688601,-0.03974010,-0.42308083,0.35821685,-0.36000755,0.10786548,0.00241964,0.05334021,-0.01811797,0.29652908,-0.03463633
0.05976574,0.18655534,-0.19887047,-0.10949049,0.24275574,0.26680478,0.29005733,-0.14663702,0.21366999,-0.18246630,-0.08512323,-0.06683495,0.01012071,0.02008449,0.30184767,0.00744705,0.15316275,-0.08073471,-0.10893827,0.35464054,0.11465691,-0.25468245,0.24973625,0.04515043,0.02398798,-0.00258054,-0.51251239,-0.06850237,-0.16709910,-0.26099038,0.10349244,0.27887419,-0.21433699,0.13513221,-0.13884981,0.30931255,-0.06536946,-0.10396051,0.02077441,0.26749077,0.02350595,0.21345757,-0.01654991,0.06380691,-0.36016378,-0.06357347,0.01817075,-0.20282201,0.30754593,-0.44863170
0.40437105,0.23936908,-0.13365678,0.12357794,0.04321320,-0.02458211,0.02547093,0.02395324,-0.03348931,0.13802177,0.02724236,-0.48143223,-0.16660888,-0.16570534,-0.17092247,-0.05179217,-0.10015049,-0.20847784,0.01851870,-0.24479084,0.03911942,0.22123414,-0.19439335,-0.11150396,-0.09312689,-0.36307153,0.06508124,-0.30082959,0.06990480,-0.51445609,-0.17758133,-0.31270152,-0.25717825,0.40710053,0.21475111,0.08176932,0.20094755,-0.30811650,0.19918033,-0.09237057,0.34882239,0.03303442,0.07552283,0.17447124,-0.25229269,-0.10911348,0.17494959,-0.12180026,-0.12301695,-0.16076890
0.01421921,-0.03630355,-0.06907802,0.31107646,-0.38134047,0.07348926,0.33569086,-0.06732882,-0.16931054,0.18458423,-0.60546929,0.27759027,-0.28257635,0.07637402,0.29946086,-0.12735230,0.00534377,-0.15442228,-0.05768848,0.20810039,0.40731791,-0.24496475,0.24352959,-0.11284167,0.30761486,-0.20919968,0.12816530,-0.10086980,-0.03930622,-0.13023140,0.36555615,0.37454963,-0.16194239,-0.27286673,0.20662017,0.10774919,-0.60501224,0.00424083,0.06945305,-0.26539281,0.02048833,-0.20474796,-0.22538596,-0.09893893,-0.27268493,-0.21451738,-0.07488399,0.09211410,-0.59675217,0.06240195
0.33425459,-0.15963385,0.14964010,0.04706362,-0.19927055,-0.15517443,-0.20842871,-0.28989434,-0.06193206,-0.20552526,0.00838258,-0.07782479,-0.06668589,-0.02060207,-0.10801585,0.10620634,-0.08388078,-0.21895581,0.01704882,0.09652188,-0.05342244,0.05661195,-0.19435886,-0.20874622,-0.26271954,0.02092244,-0.74433917,-0.02471189,-0.19132407,-0.36314344,0.21504305,0.13827649,0.13503228,-0.14089699,-0.15064046,0.02871557,-0.03442135,-0.16053867,0.41139889,-0.14985213,-0.52492714,-0.12366845,0.28194568,-0.07615092,-0.34584311,-0.05880772,-0.01428233,0.16015911,0.07078671,-0.37594870
-0.25116640,0.06086582,0.20337443,-0.08536151,-0.17901354,0.28512779,-0.14143476,0.26223707,-0.16082917,-0.26189029,0.22291552,0.00195910,0.09024547,0.15955171,0.06859975,0.22289179,-0.12719986,-0.05046726,0.13747077,-0.03194152,0.05276988,0.23870045,0.18306701,0.03423608,-0.22513230,0.16939487,-0.10390507,0.07516249,0.14523293,0.10526314,-0.96283990,0.21303187,-0.22089839,-1.08554566,0.26469484,0.01863793,0.33539468,0.25453052,-0.00116835,0.01316953,-0.03849114,0.12825817,-0.03129436,0.02897428,0.30738890,0.34645662,0.06259014,-0.66893160,0.08969271,0.14298120
-0.05161965,0.23461784,-0.22893766,-0.07068802,0.27521914,-0.14494649,-0.20849673,-0.04355875,-0.15193246,-0.31224495,0.17387632,0.10123307,-0.12394109,-0.17690207,0.16779217,0.00153173,0.06159690,-0.12632008,0.11285055,-0.00360294,0.05096027,0.28186879,0.25283486,-0.04500926,0.08318288,0.28451133,0.10405942,-0.11449941,-0.05172395,0.23378532,-0.05305150,-0.15380797,0.17622857,0.08969107,-0.00962875,0.07505416,-0.06453224,0.05834625,0.09573154,-0.12115908,0.22464998,0.01476240,0.14993602,-0.06221583,-0.26616317,-0.27962756,0.07841907,-0.05924062,0.03335940,0.23718213
-0.64124620,-0.56090814,0.31952491,-0.02745531,-0.23840064,-0.23582813,0.10753866,0.24835549,-0.08012805,-0.11884662,-0.00028176,-0.08261385,0.07573563,-0.31540045,0.38046446,0.04981278,0.12591638,0.22478525,-0.39715624,-0.16537371,-0.16326813,-0.03979969,-0.34357443,0.15907966,0.20181468,-0.00919621,0.05148986,-0.04870235,-0.09119214,-0.00110961,-0.25325370,0.06015351,0.02043475,0.16866982,-0.00730810,-0.82584280,0.20255525,0.11743338,-0.33874694,0.36973011,-0.49333677,0.09030311,-0.04503132,-0.06248253,-0.16927963,0.25802487,-0.07421433,0.09685007,0.18138459,0.28557730
-0.11012682,0.10792452,0.29132041,-0.10912353,0.03155657,-0.28746265,0.27463010,0.12582058,-0.32251278,0.06679302,0.14879830,-0.51918823,-0.30685872,0.15060668,-0.24598461,-0.46386796,-0.23438433,0.08004207,0.31721452,0.21204227,-0.08883255,0.10757222,0.05547642,0.21082243,0.37846968,-0.12152458,0.34188011,0.21051398,-0.32447293,-0.13217942,0.17508940,0.07013875,-0.23085736,-0.33692273,0.12566783,-0.10979834,0.23279446,0.24189551,0.19364479,-0.19785379,-0.22088853,0.10129235,-0.23712568,0.03292265,0.30177137,-0.23470956,-0.14233729,0.07385961,0.01263113,-0.18872662
-0.17897420,0.31132415,0.25442520,-0.10364901,0.27799469,0.16925353,0.07227703,-0.01184643,0.08619472,-0.27932546,0.01985407,0.32024497,-0.00313791,-0.35322165,-0.09141129,0.19248651,0.20195971,-0.38838890,0.17081210,0.33971351,-0.02801036,0.21161602,0.24585892,-0.82009208,0.12153696,0.01918715,0.02474153,-0.10126373,-0.14007308,0.00820559,0.16152503,0.22014318,0.01001822,0.00856742,-0.06989188,-0.11524151,-0.18641771,0.04125839,-0.80498451,0.02544163,0.14795829,0.17665839,-0.05131779,-0.26828051,0.01135054,-0.87140113,-0.08842315,0.27315694,0.25629383,-0.05167003
0.24405853,0.29629201,0.20774628,-0.17448598,0.05993600,-0.08551992,0.15714833,-0.21882656,0.28859511,0.22142889,0.30637071,-0.03479584,0.13495646,0.08851296,-0.15687929,-0.30935448,-0.37968433,-0.04232069,0.26771253,-0.07960404,0.39426881,-0.08936267,0.25140706,-0.37774029,-0.22827095,-0.04888734,0.05222694,0.03050658,0.16707313,0.02181171,-0.70825207,0.08767807,0.22847164,0.06082455,-0.16540600,-0.03587218,0.23112874,-0.06262150,-0.18079819,-0.09685960,0.00116871,0.05595715,0.21639894,-0.42902908,0.01985325,-0.33493027,-0.07330747,-0.05053212,-0.28817096,0.25366142
-0.17365994,0.05021635,0.29006323,0.28895205,0.15391126,0.07022844,-0.22420642,-0.04169561,0.29939282,-0.08798958,-0.21267323,0.42352453,-0.26637924,-0.16590750,-0.03813808,0.32039717,0.26884341,-0.26445270,-0.08595400,0.16050088,0.22901723,-0.25260064,-0.06695125,-0.40142801,-0.11353177,-0.03540925,0.41385058,0.09723127,-0.30430159,0.09316890,0.11863917,-0.14474934,0.04004005,-0.18362689,-0.36590597,-0.04710001,0.07812937,-0.02304271,-0.08584727,0.10208745,-0.12764791,0.09795582,-0.13424379,-0.27790263,-0.19428508,-0.17765719,0.03680915,0.29899129,-0.29757300,0.15452112
-0.04667540,0.16850285,-0.10546581,0.21448444,0.13707390,0.26166597,0.02128216,-0.00722117,-0.20783187,-0.00813838,0.04082692,-0.04398540,0.15268353,0.31931528,0.25069705,-0.07806817,-0.01151532,0.12558396,-0.03650224,0.04532160,-0.12369783,0.42542896,-0.20831916,-0.10179867,-0.16057064,0.23578645,-0.55928409,0.03262434,-0.01587863,-0.05117359,-0.16198473,0.01923953,0.09620181,-0.00999036,0.20025064,-0.17497857,-0.25305423,0.10014495,-0.31597564,-0.17455404,0.11543193,-0.22167827,-0.08064499,-0.35174614,-0.09240863,-0.09034618,0.31645310,-0.14846545,-0.50563359,-0.11034833
-0.03360791,0.21539184,0.03763541,0.03664640,0.29998109,0.22082479,0.00272780,0.29154745,-0.25548047,-0.24050975,0.14123040,-0.13118465,-0.47546232,0.14695823,0.01720257,0.23990193,0.23160113,-0.12954962,-0.12988372,-0.01612578,0.16912304,-0.13594832,-0.13459393,-0.55291373,-0.02962714,0.29907179,-0.03139108,-0.33239472,0.01001498,0.39095029,-0.51955539,0.28075451,0.27896100,-0.37813687,-0.04682706,0.02651002,-0.08471294,-0.10751025,0.05634122,0.23103736,0.00520353,0.06931443,0.10753640,0.21053436,-0.07511167,0.11192731,-0.02499176,0.20855400,0.01479689,-0.12703690
0.29682121,0.08473677,-0.16593133,-0.80902070,0.35827836,-0.08010221,0.12936510,0.06718024,-0.45019951,0.13095142,-0.44088674,-0.47786319,-0.43460727,-0.17068665,0.20405532,0.03086967,0.10589854,0.31834343,0.20550719,-0.17934436,-0.44283250,0.11108126,0.12628347,-1.19558394,0.06851076,-0.09304922,0.02618192,-0.27446738,0.08775288,-0.05624894,-0.31395093,0.14755587,0.22617546,-0.02259922,0.01103646,0.01433851,0.09830091,0.01452844,0.14383683,-0.58563101,-0.10979362,0.05230752,-0.20868814,-0.22851640,0.10008453,-0.23509124,0.13556176,-0.11898379,0.32372677,0.12354512
0.04204503,-0.11095306,0.05633961,-0.37711877,-0.09041326,-0.14496957,0.16524185,0.23466423,-0.16346605,0.29008946,-0.04311876,-0.13427694,-0.06294498,0.12631993,0.10437305,0.33138761,-0.05661886,-0.11229577,-0.11826213,-0.46369296,0.20229863,-0.09892104,0.29343051,-0.02195801,0.02904405,0.07196008,-0.14585121,-0.02530929,0.06403275,0.11814424,-0.21321280,-0.81524831,-0.03326328,-0.31635216,-0.37106788,-0.33796990,0.01046363,0.11380725,0.19387661,0.29487815,-0.10332359,-0.15124558,0.27786309,-0.03488767,-0.27481624,0.23042786,-0.09457703,0.39515740,0.27075157,-0.29690403
-0.29937351,0.12570626,0.06141391,-0.02277071,-0.30702385,-0.10643224,-0.12184713,0.09943663,-0.43029943,-0.10963132,0.37031943,0.21810839,-0.29795000,-0.09478937,-0.14759059,0.08491098,-0.21587110,0.08747492,0.10609500,-0.30218059,-0.19559421,-0.22640416,-0.00271327,-0.11726543,0.27805874,0.09249176,-0.68228161,-0.21446480,0.27894393,0.12882826,0.19091822,0.18992414,0.12716219,-0.04783061,-0.76545221,0.24256721,-0.15814605,-0.34585956,-0.40255770,-0.21299931,-0.32685336,0.05809769,0.00860977,-0.29913956,-0.26243076,0.02746381,0.28343448,0.10135742,-0.34045410,-0.40308627
0.44208181,-0.27056229,0.20516971,-0.38213661,-0.34378642,-0.09104154,-0.25207663,0.04326990,0.20453615,0.01036458,0.24796176,-0.01973459,-0.49479270,0.10804458,-0.23993173,-0.04205684,0.25191900,0.19493955,0.01618075,-0.33595863,0.26742452,0.05742865,0.10170349,-0.00320267,0.16796641,-0.00131594,0.21286190,0.11530828,0.23638633,0.44492772,-0.08853087,-0.06461132,0.14243859,-0.26430744,-0.27736193,-0.02678972,-0.13316576,-0.16980256,-0.15779009,-0.00647240,0.18263853,-0.07380810,-0.01406534,0.12130722,-0.23758823,0.23977402,0.01770404,-0.15238383,0.31868860,-0.23167622
0.12736438,0.13436253,0.34913766,0.00647217,-0.62040985,0.12947641,-0.02290399,0.19176587,-0.27627736,-0.00202622,-0.19723299,0.24217288,0.03865757,0.28151196,-0.19601944,-0.19393502,-0.16099629,0.34774148,-0.26725346,0.23288053,-0.16582158,-0.20739564,0.21049097,0.15471768,-0.06940143,0.11371522,0.09512675,0.07967713,-0.17481725,0.04591324,0.08297618,-0.05691050,0.04662362,-0.35426292,0.23292463,-0.08012012,0.21138272,-0.25869948,-0.40455383,0.15644512,-0.01593244,0.31583163,0.00429561,0.27039695,0.13624652,-0.17375752,0.15154538,-0.11082255,-0.02143354,-0.04250737
-0.03360774,0.23923016,-0.27118978,-0.15511101,0.08082131,0.14343567,-0.10052389,0.12629478,0.21620044,0.01974821,-0.24064460,0.00328751,0.03795126,-0.36713853,-0.15427025,0.39122358,0.07091048,-0.11236855,-0.31283689,0.10658839,0.17997500,0.06916741,-0.20282793,-0.38079181,-0.14218451,0.06883359,0.26191586,-0.33446440,-0.36052716,-0.12119687,0.23622151,-0.42795503,0.00386615,0.11013579,0.04228402,0.16393279,-0.03600608,0.31678671,-0.23555237,-0.50708270,-0.04080753,0.16830871,-0.05903313,-0.36712742,-0.03294371,0.02741983,-0.22210154,-0.09762924,0.04196079,0.02300706
-0.10084930,0.13691577,-0.10567512,0.33551395,0.24530706,-0.08500154,-0.09735272,-0.21492390,0.11549896,-0.08666457,-0.12920742,0.13559338,0.03193628,-0.03818840,0.03371679,0.28486273,0.34601265,-0.03072095,0.01449675,0.22729604,-0.11841854,-0.25518885,-0.09117362,0.22139780,-0.38490450,0.18004149,-0.20095958,-0.14408898,-0.01655394,0.20574212,-0.13202441,0.15211353,-0.14176299,-0.45152578,-0.12304569,0.16835597,0.09937733,-0.27427557,-0.30230391,0.12319352,0.12268029,0.28076237,-0.19230197,0.05725751,-0.34240779,-0.04455576,0.07393344,0.05907189,-0.25579080,-0.02114221
-0.05007375,-0.17727406,-0.15629271,0.06091518,-0.47198379,-0.27008778,0.16252539,-0.27689347,-0.18184778,0.23801759,-0.27254239,-0.39843398,0.29644293,-0.19967669,0.05130757,0.02816869,0.23488592,0.16856882,-0.38350940,-0.31789225,0.24422772,0.08315315,0.01637942,0.14101519,-0.13206944,-0.25284413,0.08661814,-0.43472010,0.18755229,-0.01222916,-0.10535270,-0.45766819,0.16031176,0.07803477,0.00572499,0.08218984,-0.28290480,0.25033635,0.32253030,0.22849676,-0.12961645,-0.00200521,0.06429927,0.10215122,-0.98670876,-0.37871087,-0.05033312,-0.08313498,0.12606351,0.04458069
0.18965186,-0.12164585,0.11013988,-0.04304486,-0.47561100,0.26892504,-0.03581785,-0.01185481,-0.03359933,0.17978123,0.10154826,0.08149950,0.14156815,0.20618625,-0.18022458,-0.32533759,0.20358211,0.18022837,0.07089928,-0.04160498,-0.16053937,0.19844428,-0.08144776,0.20989688,-0.09875122,-0.12844750,0.03051021,-0.10777275,-0.13572523,0.03616359,0.10183006,-0.25323603,-0.01184244,0.19983159,-0.12084851,0.43163455,-0.11742327,0.20220414,-0.13591744,-0.01026874,0.31606510,0.47545624,-0.14720421,0.29152694,0.51062649,0.08585904,0.04787617,-0.21955071,0.32953340,-0.15944085
-0.19500482,0.09761554,0.16777302,0.12813357,-0.00796123,0.30861020,-0.16510060,0.03636700,-0.26893437,0.03834228,0.01533797,-0.18784358,-0.31440735,0.14349398,0.01744414,0.43087202,0.09696598,-0.03354079,0.20671096,-0.00004933,0.10504623,-0.01567387,-0.35518155,-0.12976535,0.17079227,-0.50136733,-0.39258438,-0.07144388,0.23565294,-0.14990161,-0.05504047,-0.57479739,-0.14177629,-0.20545034,-0.51115066,-0.14733425,-0.11648724,-0.07376298,0.06956086,0.06831985,0.02364180,-0.06467201,0.26396295,-0.21954150,0.11406631,0.24609028,0.36805779,-0.12920904,0.06136314,-0.04576823
0.08588123,0.10480908,-0.38292131,-0.12046126,0.21059842,-0.02902152,0.03026025,0.23906147,0.00174944,-0.25266406,0.03485369,-0.12023018,-0.33681965,0.27832845,-0.36988595,-0.02221049,-0.07595617,-0.14647682,0.37191871,-0.62650388,-0.18785076,-0.13131018,0.19667462,0.03511386,-0.35923401,-0.13022318,-0.38373354,-0.02072004,0.12465265,-0.16958888,0.12959725,0.15202579,-0.10103232,0.00256334,-0.10309012,0.09595784,-0.16675115,-0.46159464,-0.17976061,-0.68065733,-0.38509884,0.00723726,-0.17964795,0.11508508,0.10638797,0.11546422,-0.14574513,0.21129236,-0.36373854,0.20354509
-0.05884003,-0.13593905,0.07757451,0.08777107,-0.04257317,0.18048751,-0.13843754,0.10673086,0.34143430,-0.14214052,-0.11476109,-0.42715552,-0.09668687,0.35688263,-0.12493295,-0.08555882,-0.53735232,-0.17131831,0.06682472,0.00109741,0.10152429,-0.33157480,0.09577645,0.33815902,0.00591449,0.21583927,0.38229775,-0.08363833,0.13144976,-0.11025510,0.17318217,0.17560637,-0.25927550,-0.20461485,0.04744806,0.21992373,0.18105233,-0.03368243,0.07725769,0.66132969,-0.01823659,-0.00148561,0.18098643,-0.23919755,-0.20455308,-0.21872230,-0.00613564,-0.16095123,0.25691831,0.01338808
-0.16429995,0.10854666,0.06851323,0.21653561,0.15689975,-0.38030267,0.34008873,0.09374026,0.07356774,-0.27933285,0.09350069,0.03800768,-0.19426781,0.32223034,-0.17259510,-0.34458116,-0.09057380,0.01171627,0.12640913,-0.16200967,-0.05716792,-0.02757848,-0.34145001,0.05127921,0.19262584,-0.05448516,-0.44558230,-0.45532349,0.33520928,-0.33261132,-0.20742351,0.29828292,-0.19931595,-0.00200639,-0.22625154,-0.14086850,-0.03256221,-0.17386545,0.05064135,-0.10419016,0.15766275,0.31695259,-0.11385202,0.04899367,-0.22739062,-0.05784246,0.29445446,-0.06273711,0.10619652,0.19003044
0.00947935,-0.08244045,-0.32104230,-0.53052151,0.14483918,-0.22437473,-0.05007621,-0.08665714,-0.06332794,0.17354591,-0.15351114,-0.75765222,-0.38839179,-0.16716976,0.13343890,0.10317119,-0.17559163,0.17268950,0.10188985,-0.30789822,-0.00325507,0.15816936,0.21263313,0.05659510,-0.04887918,0.21973394,-0.14226474,-0.63925987,-0.28406891,0.36635345,0.23519820,0.21884279,-0.17167869,0.10176276,-0.02552791,0.34971771,-0.25293937,-0.23827913,-0.18649499,-0.42421696,0.09882963,-0.09098176,0.04413699,0.37066433,-0.07036267,0.18860713,-0.05197395,0.09925580,0.02639453,0.01821101
-0.14986885,0.08700664,-0.21009661,0.25365117,-0.40070277,0.11209676,0.00650469,0.06312221,0.07317268,-0.09614376,0.31539980,-0.79070711,-0.13371414,-0.35764790,-0.24516167,-0.20062794,0.19722900,0.04271203,-0.00296154,0.38932842,0.18991867,-0.00854548,-0.10364845,0.16050519,0.16210239,0.24213365,-0.13611589,-0.15647244,-0.10462613,-0.07385512,0.08688276,-0.27211875,0.14507778,-0.11275747,0.19915518,-0.45525467,0.34590739,0.07077004,0.04543595,-0.29505163,0.21643755,-0.07918637,0.09384073,0.24088484,-0.03644369,0.05981172,-0.31330705,0.09104310,-0.18231440,-0.22341135
-0.87241113,-0.27111107,-0.08214107,0.25113857,-0.06821473,-0.02248776,0.29168478,-0.12848701,0.29137856,0.13043945,0.22632465,0.20611946,0.06129880,0.16609599,-0.07027702,-0.43522760,-0.21530584,-0.00240268,-0.28358996,0.25825194,0.26819661,0.09281632,-0.37585011,0.01020122,-0.19078095,-0.15722512,-0.11678790,0.19186920,0.14377613,0.23633659,-0.65289056,0.33368951,0.02000668,-0.44888684,-0.19478838,-0.11761235,-0.19210511,-0.23131807,-0.02705529,0.09689499,-0.13719191,-0.43986103,-0.03996059,0.09380990,0.06264814,-0.10857165,0.21767315,0.00515686,0.03132106,0.03227340
0.01334878,0.22655395,0.25838554,-0.64658582,0.04336669,0.12157581,0.14862630,-0.07467762,0.04833276,0.35020092,-0.01520199,-0.28462344,-0.43117163,0.19857824,-1.00628221,-0.09727032,-0.45329306,-0.47166285,0.24931574,0.19432160,-0.12900959,-0.12789781,0.11002839,-0.02781602,-0.01044331,-0.32291034,0.05168375,-0.15070438,-0.18739335,-0.03206192,0.12861177,-0.29857937,0.11268189,0.10203303,0.24418361,0.20971061,-0.15202250,0.04889343,0.01695829,-0.54930454,0.04464776,-0.30889043,0.12384032,-0.15093069,-0.02204291,0.12673633,0.18764241,-0.33866286,-0.24306633,-0.08267848
-0.31520388,0.11028714,-0.13399999,-0.57125235,0.06515090,0.03917863,0.07875272,0.16769287,-0.20251675,0.16347882,-0.13294132,-0.62054735,-0.18906204,0.05205156,-0.07933199,0.03608729,0.27226159,0.11904292,0.24417129,0.10798015,-0.05624057,-0.26767570,-0.01518467,0.06858505,-0.11686699,0.04816894,0.20840268,0.13347742,-0.21970209,-0.32319796,0.11343817,-0.30027488,0.01784368,-0.17085330,-0.06794622,-0.02539426,-0.14926758,0.39268586,-0.25566480,-0.06813399,0.17981236,0.10163731,0.09405119,-0.13674650,-0.01672333,0.19129287,0.08727153,-0.37384361,-0.33385298,-0.28668875
0.00550740,-0.04731273,0.22076845,0.28060573,0.01516891,-0.01939696,0.20981531,0.10728876,-0.10136659,-0.41743702,0.13220622,0.04166626,-0.43398848,0.22566785,-0.13575329,0.10626892,0.34299687,0.26072949,-0.06063123,-0.23049922,-0.29822510,0.00849461,-0.18956417,-0.03850030,0.05176186,-0.11606979,0.15660477,-0.08378256,0.27140707,-0.19843669,-0.06697591,0.24756500,0.21237093,-0.04592202,0.06002156,0.19157586,-0.07953699,-0.17954355,0.17503008,-0.33694842,0.14254184,-0.19477043,0.08788820,-0.38269812,-0.54345554,0.01719039,0.15829611,-0.20232570,-0.22938779,-0.00597055
-0.10402834,0.07045396,0.24629998,0.06124094,0.11980477,0.05669514,-0.29551765,0.18941478,-0.24726979,0.13218059,0.00738405,-0.19236200,-0.40323707,-0.20730865,-0.30719042,0.15102814,0.26002160,-0.80951864,-0.08112273,0.00191165,0.22739312,-0.10537399,-0.16253945,-0.07855106,0.03226925,-0.04586529,0.21967030,-0.30594131,0.05158698,0.12860303,-0.10453913,-0.23820545,0.22875969,0.02993504,0.30948535,0.02852885,-0.41636068,0.19975896,-0.02671921,-0.14593820,-0.47828078,-0.03247457,0.30650508,-0.17155249,0.32884970,-1.06083500,-0.39624146,-0.12176330,-0.01292463,0.35839441
-0.10446249,-0.16595544,0.13365830,-0.02754640,-0.19552563,0.07375714,-0.07413472,-0.08222190,0.10796089,-0.25759280,0.03520269,-0.64776695,0.09248513,-0.05261165,0.02440556,-0.33508372,-0.45195562,-0.03934258,0.01665513,0.18469979,-0.31191805,0.27848837,0.36594000,0.24450836,0.57300478,0.22956511,0.13867065,-0.01781924,0.18326215,-0.20670846,0.27309996,0.15689009,0.00699407,-0.81755167,-0.05816237,-0.14623986,0.24733688,0.14696400,-0.27313730,0.00207107,-0.13701689,0.13776556,0.29917675,0.07572932,-0.25307229,0.36561280,0.26544967,-0.08458089,0.10489599,0.28129858
-0.10570129,0.02943248,-0.05476154,0.12587470,0.01769599,0.19747499,0.01375009,-0.12966327,0.35600758,0.26679733,-0.09242614,-0.27823523,0.01038300,0.07485640,0.01739434,-0.24951112,0.36647034,-0.03335166,0.22450626,0.19448976,-0.15947427,0.20004725,-0.20137489,0.09795164,-0.39714772,-0.14446484,-0.11720049,0.16412826,0.09779689,-0.13201612,-0.17584577,-0.22054462,-0.10849386,0.09047863,0.08481192,0.24458437,0.40222311,-0.23237383,-0.15151481,0.00246637,0.26201713,0.03637405,-0.41762614,-0.02697857,0.40320602,0.01250207,0.09212982,0.35371658,-0.30055323,-0.04848260
0.13765168,0.11318915,0.08129328,0.05778010,0.32538667,0.33069876,0.15072998,0.00921164,0.18434301,-0.32539383,0.00486966,-0.34604669,0.41663578,0.01522862,0.23830506,-0.29511958,-0.12686074,0.21325351,-0.07181489,-0.05755289,-0.26834241,0.04464536,0.30209461,-0.11707609,-0.00137796,-0.38072178,0.03048857,-0.40356788,0.05191701,0.10641871,0.13205445,-0.30089915,-0.00609799,-0.16384077,-0.07270839,-0.48980117,-0.02184617,0.09615745,-0.23132069,0.07587723,-0.12478627,0.01172501,-0.31112704,-0.08358903,-0.12154785,-0.32363471,0.08972065,0.16113299,0.08414359,0.07430607
0.23070079,-0.08858182,-0.05812686,-0.13819912,-0.27329251,-0.11412571,-0.18370624,0.17649631,0.00193595,0.23336221,-0.12978190,0.09182566,0.10287637,-0.28904885,0.24401729,-0.03846149,0.09298226,-0.22818452,0.24404505,-0.05178918,0.26702455,0.28367901,-0.18307289,0.16166306,-0.12220570,0.06188175,-0.06930000,0.01065935,-0.06237987,-0.17650983,0.02456830,-0.01338625,0.07360863,-0.25656638,0.01167526,-0.14436677,0.21924923,0.05527252,0.01764216,0.04995148,-0.36075118,-0.50607264,0.30870032,0.36994940,0.06844081,-0.19568849,-0.32756665,-0.15096883,0.23522803,0.18119936
0.15612240,0.08920261,0.18789233,-0.06353872,-0.07727509,-0.02892238,0.16756682,-0.05502042,0.01911355,0.08997966,-0.01787527,-0.41332614,-0.06659797,-0.04036329,-0.23065509,-0.06839079,-0.30373311,-0.44479483,0.27905267,0.10276552,0.03586497,0.27233818,0.24673134,-0.31690550,-0.14006850,-0.51253253,0.14995411,-0.80036902,0.15773223,0.10534856,0.16965584,0.08870099,0.13961512,0.10496190,-0.33743846,0.19730809,-0.11724008,0.08382154,-0.34302375,-0.09300460,-0.03267453,0.01058816,0.30280086,-0.31371471,-0.27391502,0.02345031,-0.14388011,0.06242867,-0.20170815,0.12213821
-0.17837118,0.01034868,-0.00641538,-0.20445465,0.18177676,-0.06666784,-0.16617709,0.08334875,0.07328692,-0.15337114,0.32865527,-0.41199660,-0.11800453,-0.04946370,0.00829776,-0.32686710,-0.01024285,-0.05334067,0.18029155,-0.12984559,-0.18486828,-0.18031698,0.24066095,-0.06354134,-0.35863736,0.14582725,-0.26058066,-0.48234218,0.06952497,-0.55545795,0.24515091,-0.18940714,-0.38391006,-0.27223870,-0.12284215,-0.07737045,0.21931574,-0.17287597,0.36560422,-0.09025262,0.18720692,0.18885656,-0.21161200,0.27505594,-0.15659148,-0.19618769,0.02391287,-0.03996107,0.22110441,-0.16544871
0.16437326,-0.03929475,-0.13641866,0.18774377,-0.09413371,0.07280731,-0.61680871,-0.29169422,0.07171550,0.11160001,-0.20217811,-0.03339052,-0.01329166,0.02408762,0.18957525,-0.05041753,0.15197362,-0.21556045,-0.26915160,-0.09328982,-0.18573824,-0.31804284,0.22261164,-0.03765659,-0.33263260,-0.16184475,-0.01459685,-0.07033680,-0.28411373,0.05281315,-0.31191835,-0.25175992,0.31744149,-0.02671814,0.23490138,-0.05694517,-0.21589875,0.44250292,0.25844482,0.05320132,-0.53945351,-0.25576255,0.12399037,-0.11250877,-0.24001549,-0.52201146,-0.03642476,-0.22009766,0.09242534,0.07212090
-0.14374089,-0.07580301,0.17115963,-0.10073487,-0.22403076,0.26061818,-0.08055672,0.06948769,-0.46396691,-0.21176559,-0.19883519,0.20929006,-0.00462334,0.14024396,0.11207929,-0.14734431,-0.27980801,0.17841671,-0.06115440,0.20741552,0.04740694,-0.60068125,-0.09316187,0.07078430,-0.20913002,-0.47635213,0.01601116,-0.33001611,0.19624583,-0.25101462,0.16167484,0.18555313,0.21540371,-0.07513063,-0.19341102,0.04822465,0.10047829,-0.60719460,0.22484297,0.16585992,-0.09696576,0.20972304,0.10978540,0.33717874,0.18294439,0.03078744,0.19255370,-0.01150766,0.06290458,-0.17979364

-0.09836770
-0.00803304
0.05361357
0.05004964
-0.00643371
0.12891322
0.11845437
0.10744966
-0.02431359
0.05783379
-0.08732195
0.03731785
-0.30946270
0.10048427
0.14800633
0.13158722
-0.05968669
0.23527269
0.06584916
0.16003256
0.06864168
0.02449987
-0.12292805
0.23752956
-0.14426319
-0.04911478
-0.13544798
0.10527689
0.03432402
-0.16958867
-0.00854305
-0.25193068
0.12437388
0.14738867
-0.12409032
-0.00308858
-0.02058328
-0.03531354
0.02415059
-0.13422364
-0.16568348
-0.04360867
-0.08773047
-0.17587702
0.17168504
0.08511235
0.00840849
0.05482508
-0.06311221
0.09085512

-0.28781605
-0.14481391
0.20916906
-0.53003603
-0.21836808
0.10658193
0.39094928
0.19325431
0.45289990
-0.38894936
-0.27058613
-0.49558267
-0.73669797
0.29950398
-0.21283266
0.23536651
0.25713101
0.48881400
-0.21836154
-0.58486551
0.29926777
-0.27623323
-0.27859247
-0.48087189
0.35540736
-0.09146640
-0.70414287
0.91507941
-0.22474620
-0.43139902
0.32275686
-0.28759423
0.28705701
0.47046956
-0.44787988
-0.16669805
0.14767633
-0.28240263
-0.39202234
-0.28747413
0.51053578
0.20894584
0.23222785
0.46017846
0.41091010
-0.89302701
0.14080797
0.29916462
-0.26128045
-0.31823453

0.02972963

